<?xml version="1.0" encoding="ISO-8859-1"?>
<smile version="1.0" id="Sub0" numsamples="1000" discsamples="10000">
	<nodes>
		<cpt id="GOAL_21">
			<state id="state1" />
			<state id="state2" />
			<probabilities>0.02 0.98</probabilities>
		</cpt>
		<cpt id="SNode_32">
			<state id="state1" />
			<state id="state2" />
			<probabilities>0.02 0.98</probabilities>
		</cpt>
		<cpt id="SNode_43">
			<state id="state1" />
			<state id="state2" />
			<probabilities>0.02 0.98</probabilities>
		</cpt>
		<cpt id="SNode_54">
			<state id="state1" />
			<state id="state2" />
			<probabilities>0.02 0.98</probabilities>
		</cpt>
		<cpt id="SNode_65">
			<state id="state1" />
			<state id="state2" />
			<probabilities>0.02 0.98</probabilities>
		</cpt>
		<cpt id="SNode_76">
			<state id="state1" />
			<state id="state2" />
			<probabilities>0.02 0.98</probabilities>
		</cpt>
		<cpt id="DISPLACEM07">
			<state id="state1" />
			<state id="state2" />
			<probabilities>0.5 0.5</probabilities>
		</cpt>
		<cpt id="RApp18">
			<state id="state1" />
			<state id="state2" />
			<probabilities>1 0</probabilities>
		</cpt>
		<cpt id="GIVEN_19">
			<state id="state1" />
			<state id="state2" />
			<probabilities>0.02 0.98</probabilities>
		</cpt>
		<cpt id="RApp210">
			<state id="state1" />
			<state id="state2" />
			<probabilities>1 0</probabilities>
		</cpt>
		<cpt id="SNode_811">
			<state id="state1" />
			<state id="state2" />
			<probabilities>0.8 0.2</probabilities>
		</cpt>
		<cpt id="SNode_912">
			<state id="state1" />
			<state id="state2" />
			<probabilities>0.02 0.98</probabilities>
		</cpt>
		<cpt id="SNode_1013">
			<state id="state1" />
			<state id="state2" />
			<probabilities>0.02 0.98</probabilities>
		</cpt>
		<cpt id="SNode_1114">
			<state id="state1" />
			<state id="state2" />
			<probabilities>0.02 0.98</probabilities>
		</cpt>
		<cpt id="SNode_1215">
			<state id="state1" />
			<state id="state2" />
			<probabilities>0.02 0.98</probabilities>
		</cpt>
		<cpt id="SNode_1316">
			<state id="state1" />
			<state id="state2" />
			<probabilities>0.02 0.98</probabilities>
		</cpt>
		<cpt id="SNode_1417">
			<state id="state1" />
			<state id="state2" />
			<probabilities>0.02 0.98</probabilities>
		</cpt>
		<cpt id="SNode_1518">
			<state id="state1" />
			<state id="state2" />
			<probabilities>0.02 0.98</probabilities>
		</cpt>
		<cpt id="SNode_1619">
			<state id="state1" />
			<state id="state2" />
			<probabilities>0.02 0.98</probabilities>
		</cpt>
		<cpt id="SNode_1720">
			<state id="state1" />
			<state id="state2" />
			<probabilities>0.02 0.98</probabilities>
		</cpt>
		<cpt id="SNode_1821">
			<state id="state1" />
			<state id="state2" />
			<probabilities>0.02 0.98</probabilities>
		</cpt>
		<cpt id="SNode_1922">
			<state id="state1" />
			<state id="state2" />
			<probabilities>0.02 0.98</probabilities>
		</cpt>
		<cpt id="NEED123">
			<state id="state1" />
			<state id="state2" />
			<probabilities>0.5 0.5</probabilities>
		</cpt>
		<cpt id="SNode_2024">
			<state id="state1" />
			<state id="state2" />
			<probabilities>0.8 0.2</probabilities>
		</cpt>
		<cpt id="GRAV225">
			<state id="state1" />
			<state id="state2" />
			<probabilities>0.5 0.5</probabilities>
		</cpt>
		<cpt id="SNode_2126">
			<state id="state1" />
			<state id="state2" />
			<probabilities>0.8 0.2</probabilities>
		</cpt>
		<cpt id="VALUE327">
			<state id="state1" />
			<state id="state2" />
			<probabilities>0.5 0.5</probabilities>
		</cpt>
		<cpt id="SNode_2428">
			<state id="state1" />
			<state id="state2" />
			<probabilities>0.9 0.1</probabilities>
		</cpt>
		<cpt id="SLIDING429">
			<state id="state1" />
			<state id="state2" />
			<probabilities>0.1 0.9</probabilities>
		</cpt>
		<cpt id="SNode_2530">
			<state id="state1" />
			<state id="state2" />
			<probabilities>0.9 0.1</probabilities>
		</cpt>
		<cpt id="CONSTANT531">
			<state id="state1" />
			<state id="state2" />
			<probabilities>0.5 0.5</probabilities>
		</cpt>
		<cpt id="SNode_2632">
			<state id="state1" />
			<state id="state2" />
			<probabilities>0.8 0.2</probabilities>
		</cpt>
		<cpt id="KNOWN633">
			<state id="state1" />
			<state id="state2" />
			<probabilities>0.5 0.5</probabilities>
		</cpt>
		<cpt id="VELOCITY734">
			<state id="state1" />
			<state id="state2" />
			<probabilities>0.5 0.5</probabilities>
		</cpt>
		<cpt id="SNode_4735">
			<state id="state1" />
			<state id="state2" />
			<probabilities>0.8 0.2</probabilities>
		</cpt>
		<cpt id="RApp336">
			<state id="state1" />
			<state id="state2" />
			<probabilities>1 0</probabilities>
		</cpt>
		<cpt id="KNOWN837">
			<state id="state1" />
			<state id="state2" />
			<probabilities>0.5 0.5</probabilities>
		</cpt>
		<cpt id="RApp438">
			<state id="state1" />
			<state id="state2" />
			<probabilities>1 0</probabilities>
		</cpt>
		<cpt id="SNode_2739">
			<state id="state1" />
			<state id="state2" />
			<probabilities>0.8 0.2</probabilities>
		</cpt>
		<cpt id="COMPO1640">
			<state id="state1" />
			<state id="state2" />
			<probabilities>0.5 0.5</probabilities>
		</cpt>
		<cpt id="GOAL_4841">
			<state id="state1" />
			<state id="state2" />
			<probabilities>0.8 0.2</probabilities>
		</cpt>
		<cpt id="TRY1242">
			<state id="state1" />
			<state id="state2" />
			<probabilities>0.7 0.3</probabilities>
		</cpt>
		<cpt id="TRY1143">
			<state id="state1" />
			<state id="state2" />
			<probabilities>0.8 0.2</probabilities>
		</cpt>
		<cpt id="GOAL_4944">
			<state id="state1" />
			<state id="state2" />
			<probabilities>0.8 0.2</probabilities>
		</cpt>
		<cpt id="CHOOSE1945">
			<state id="state1" />
			<state id="state2" />
			<probabilities>0.5 0.5</probabilities>
		</cpt>
		<cpt id="GOAL_5046">
			<state id="state1" />
			<state id="state2" />
			<probabilities>0.8 0.2</probabilities>
		</cpt>
		<cpt id="SYSTEM1847">
			<state id="state1" />
			<state id="state2" />
			<probabilities>0.5 0.5</probabilities>
		</cpt>
		<cpt id="SNode_5148">
			<state id="state1" />
			<state id="state2" />
			<probabilities>0.9 0.1</probabilities>
		</cpt>
		<cpt id="KINEMATI1749">
			<state id="state1" />
			<state id="state2" />
			<probabilities>0.5 0.5</probabilities>
		</cpt>
		<cpt id="SNode_5250">
			<state id="state1" />
			<state id="state2" />
			<probabilities>0.8 0.2</probabilities>
		</cpt>
		<cpt id="IDENTIFY1051">
			<state id="state1" />
			<state id="state2" />
			<probabilities>0.5 0.5</probabilities>
		</cpt>
		<cpt id="GOAL_5352">
			<state id="state1" />
			<state id="state2" />
			<probabilities>0.8 0.2</probabilities>
		</cpt>
		<cpt id="IDENTIFY953">
			<state id="state1" />
			<state id="state2" />
			<probabilities>0.5 0.5</probabilities>
		</cpt>
		<cpt id="SNode_2854">
			<state id="state1" />
			<state id="state2" />
			<probabilities>0.8 0.2</probabilities>
		</cpt>
		<cpt id="TRY1355">
			<state id="state1" />
			<state id="state2" />
			<probabilities>0.8 0.2</probabilities>
		</cpt>
		<cpt id="TRY1456">
			<state id="state1" />
			<state id="state2" />
			<probabilities>0.9 0.1</probabilities>
		</cpt>
		<cpt id="TRY1557">
			<state id="state1" />
			<state id="state2" />
			<probabilities>0.9 0.1</probabilities>
		</cpt>
		<cpt id="VAR2058">
			<state id="state1" />
			<state id="state2" />
			<probabilities>0.3 0.7</probabilities>
		</cpt>
		<cpt id="SNode_2959">
			<state id="state1" />
			<state id="state2" />
			<probabilities>0.8 0.2</probabilities>
		</cpt>
		<cpt id="SNode_3160">
			<state id="state1" />
			<state id="state2" />
			<probabilities>0.9 0.1</probabilities>
		</cpt>
		<cpt id="GIVEN2161">
			<state id="state1" />
			<state id="state2" />
			<probabilities>0.1 0.9</probabilities>
		</cpt>
		<cpt id="SNode_3362">
			<state id="state1" />
			<state id="state2" />
			<probabilities>0.9 0.1</probabilities>
		</cpt>
		<cpt id="SNode_3463">
			<state id="state1" />
			<state id="state2" />
			<probabilities>0.8 0.2</probabilities>
		</cpt>
		<cpt id="VECTOR2764">
			<state id="state1" />
			<state id="state2" />
			<probabilities>0.5 0.5</probabilities>
		</cpt>
		<cpt id="APPLY3265">
			<state id="state1" />
			<state id="state2" />
			<probabilities>0.5 0.5</probabilities>
		</cpt>
		<cpt id="GOAL_5666">
			<state id="state1" />
			<state id="state2" />
			<probabilities>0.8 0.2</probabilities>
		</cpt>
		<cpt id="CHOOSE3567">
			<state id="state1" />
			<state id="state2" />
			<probabilities>0.5 0.5</probabilities>
		</cpt>
		<cpt id="GOAL_5768">
			<state id="state1" />
			<state id="state2" />
			<probabilities>0.8 0.2</probabilities>
		</cpt>
		<cpt id="MAXIMIZE3469">
			<state id="state1" />
			<state id="state2" />
			<probabilities>0.5 0.5</probabilities>
		</cpt>
		<cpt id="SNode_5970">
			<state id="state1" />
			<state id="state2" />
			<probabilities>0.8 0.2</probabilities>
		</cpt>
		<cpt id="AXIS3371">
			<state id="state1" />
			<state id="state2" />
			<probabilities>0.2 0.8</probabilities>
		</cpt>
		<cpt id="SNode_6072">
			<state id="state1" />
			<state id="state2" />
			<probabilities>0.8 0.2</probabilities>
		</cpt>
		<cpt id="WRITE3173">
			<state id="state1" />
			<state id="state2" />
			<probabilities>0.5 0.5</probabilities>
		</cpt>
		<cpt id="GOAL_6174">
			<state id="state1" />
			<state id="state2" />
			<probabilities>0.8 0.2</probabilities>
		</cpt>
		<cpt id="WRITE3075">
			<state id="state1" />
			<state id="state2" />
			<probabilities>0.5 0.5</probabilities>
		</cpt>
		<cpt id="GOAL_6276">
			<state id="state1" />
			<state id="state2" />
			<probabilities>0.8 0.2</probabilities>
		</cpt>
		<cpt id="RESOLVE3777">
			<state id="state1" />
			<state id="state2" />
			<probabilities>0.5 0.5</probabilities>
		</cpt>
		<cpt id="GOAL_6378">
			<state id="state1" />
			<state id="state2" />
			<probabilities>0.8 0.2</probabilities>
		</cpt>
		<cpt id="NEED3679">
			<state id="state1" />
			<state id="state2" />
			<probabilities>0.5 0.5</probabilities>
		</cpt>
		<cpt id="SNode_6480">
			<state id="state1" />
			<state id="state2" />
			<probabilities>0.8 0.2</probabilities>
		</cpt>
		<cpt id="SNode_4181">
			<state id="state1" />
			<state id="state2" />
			<probabilities>0.8 0.2</probabilities>
		</cpt>
		<cpt id="SNode_4282">
			<state id="state1" />
			<state id="state2" />
			<probabilities>0.8 0.2</probabilities>
		</cpt>
		<cpt id="IDENTIFY3983">
			<state id="state1" />
			<state id="state2" />
			<probabilities>0.5 0.5</probabilities>
		</cpt>
		<cpt id="SNode_4384">
			<state id="state1" />
			<state id="state2" />
			<probabilities>0.8 0.2</probabilities>
		</cpt>
		<cpt id="RESOLVE3885">
			<state id="state1" />
			<state id="state2" />
			<probabilities>0.5 0.5</probabilities>
		</cpt>
		<cpt id="GOAL_6686">
			<state id="state1" />
			<state id="state2" />
			<probabilities>0.8 0.2</probabilities>
		</cpt>
		<cpt id="SNode_6787">
			<state id="state1" />
			<state id="state2" />
			<probabilities>0.8 0.2</probabilities>
		</cpt>
		<cpt id="IDENTIFY4188">
			<state id="state1" />
			<state id="state2" />
			<probabilities>0.5 0.5</probabilities>
		</cpt>
		<cpt id="SNode_5489">
			<state id="state1" />
			<state id="state2" />
			<probabilities>0.8 0.2</probabilities>
		</cpt>
		<cpt id="RESOLVE4090">
			<state id="state1" />
			<state id="state2" />
			<probabilities>0.5 0.5</probabilities>
		</cpt>
		<cpt id="GOAL_6991">
			<state id="state1" />
			<state id="state2" />
			<probabilities>0.8 0.2</probabilities>
		</cpt>
		<cpt id="SNode_7092">
			<state id="state1" />
			<state id="state2" />
			<probabilities>0.8 0.2</probabilities>
		</cpt>
		<cpt id="IDENTIFY4393">
			<state id="state1" />
			<state id="state2" />
			<probabilities>0.6 0.4</probabilities>
		</cpt>
		<cpt id="SNode_5594">
			<state id="state1" />
			<state id="state2" />
			<probabilities>0.8 0.2</probabilities>
		</cpt>
		<cpt id="RESOLVE4295">
			<state id="state1" />
			<state id="state2" />
			<probabilities>0.5 0.5</probabilities>
		</cpt>
		<cpt id="GOAL_7296">
			<state id="state1" />
			<state id="state2" />
			<probabilities>0.8 0.2</probabilities>
		</cpt>
		<cpt id="SNode_7397">
			<state id="state1" />
			<state id="state2" />
			<probabilities>0.8 0.2</probabilities>
		</cpt>
		<cpt id="KINE2998">
			<state id="state1" />
			<state id="state2" />
			<probabilities>0.5 0.5</probabilities>
		</cpt>
		<cpt id="SNode_7499">
			<state id="state1" />
			<state id="state2" />
			<probabilities>0.5 0.5</probabilities>
		</cpt>
		<cpt id="VECTOR44100">
			<state id="state1" />
			<state id="state2" />
			<probabilities>0.5 0.5</probabilities>
		</cpt>
		<cpt id="SNode_75101">
			<state id="state1" />
			<state id="state2" />
			<probabilities>0.9 0.1</probabilities>
		</cpt>
		<cpt id="EQUATION28102">
			<state id="state1" />
			<state id="state2" />
			<probabilities>0.6 0.4</probabilities>
		</cpt>
		<cpt id="GOAL_79103">
			<state id="state1" />
			<state id="state2" />
			<probabilities>0.8 0.2</probabilities>
		</cpt>
		<cpt id="RApp5104">
			<state id="state1" />
			<state id="state2" />
			<probabilities>1 0</probabilities>
		</cpt>
		<cpt id="GOAL_80105">
			<state id="state1" />
			<state id="state2" />
			<probabilities>0.8 0.2</probabilities>
		</cpt>
		<cpt id="RApp6106">
			<state id="state1" />
			<state id="state2" />
			<probabilities>1 0</probabilities>
		</cpt>
		<cpt id="GOAL_81107">
			<state id="state1" />
			<state id="state2" />
			<probabilities>0.8 0.2</probabilities>
		</cpt>
		<cpt id="TRY25108">
			<state id="state1" />
			<state id="state2" />
			<probabilities>0.1 0.9</probabilities>
		</cpt>
		<cpt id="TRY24109">
			<state id="state1" />
			<state id="state2" />
			<probabilities>0.95 0.05</probabilities>
		</cpt>
		<cpt id="GOAL_83110">
			<state id="state1" />
			<state id="state2" />
			<probabilities>0.8 0.2</probabilities>
		</cpt>
		<cpt id="CHOOSE47111">
			<state id="state1" />
			<state id="state2" />
			<probabilities>0.5 0.5</probabilities>
		</cpt>
		<cpt id="GOAL_84112">
			<state id="state1" />
			<state id="state2" />
			<probabilities>0.8 0.2</probabilities>
		</cpt>
		<cpt id="SYSTEM46113">
			<state id="state1" />
			<state id="state2" />
			<probabilities>0.5 0.5</probabilities>
		</cpt>
		<cpt id="SNode_86114">
			<state id="state1" />
			<state id="state2" />
			<probabilities>0.9 0.1</probabilities>
		</cpt>
		<cpt id="NEWTONS45115">
			<state id="state1" />
			<state id="state2" />
			<probabilities>0.5 0.5</probabilities>
		</cpt>
		<cpt id="SNode_156116">
			<state id="state1" />
			<state id="state2" />
			<probabilities>0.8 0.2</probabilities>
		</cpt>
		<cpt id="DEFINE23117">
			<state id="state1" />
			<state id="state2" />
			<probabilities>0.5 0.5</probabilities>
		</cpt>
		<cpt id="GOAL_98118">
			<state id="state1" />
			<state id="state2" />
			<probabilities>0.8 0.2</probabilities>
		</cpt>
		<cpt id="IDENTIFY22119">
			<state id="state1" />
			<state id="state2" />
			<probabilities>0.5 0.5</probabilities>
		</cpt>
		<cpt id="SNode_37120">
			<state id="state1" />
			<state id="state2" />
			<probabilities>0.8 0.2</probabilities>
		</cpt>
		<cpt id="TRY26121">
			<state id="state1" />
			<state id="state2" />
			<probabilities>0.9 0.1</probabilities>
		</cpt>
		<cpt id="SNode_38122">
			<state id="state1" />
			<state id="state2" />
			<probabilities>0.8 0.2</probabilities>
		</cpt>
		<cpt id="SNode_40123">
			<state id="state1" />
			<state id="state2" />
			<probabilities>0.9 0.1</probabilities>
		</cpt>
		<cpt id="SNode_44124">
			<state id="state1" />
			<state id="state2" />
			<probabilities>0.8 0.2</probabilities>
		</cpt>
		<cpt id="SNode_46125">
			<state id="state1" />
			<state id="state2" />
			<probabilities>0.9 0.1</probabilities>
		</cpt>
		<cpt id="NULL48126">
			<state id="state1" />
			<state id="state2" />
			<probabilities>0.5 0.5</probabilities>
		</cpt>
		<cpt id="SNode_65127">
			<state id="state1" />
			<state id="state2" />
			<probabilities>0.9 0.1</probabilities>
		</cpt>
		<cpt id="SNode_68128">
			<state id="state1" />
			<state id="state2" />
			<probabilities>0.9 0.1</probabilities>
		</cpt>
		<cpt id="SNode_71129">
			<state id="state1" />
			<state id="state2" />
			<probabilities>0.9 0.1</probabilities>
		</cpt>
		<cpt id="FIND49130">
			<state id="state1" />
			<state id="state2" />
			<probabilities>0.5 0.5</probabilities>
		</cpt>
		<cpt id="GOAL_87131">
			<state id="state1" />
			<state id="state2" />
			<probabilities>0.7 0.3</probabilities>
		</cpt>
		<cpt id="NORMAL50132">
			<state id="state1" />
			<state id="state2" />
			<probabilities>0.5 0.5</probabilities>
		</cpt>
		<cpt id="SNode_88133">
			<state id="state1" />
			<state id="state2" />
			<probabilities>0.9 0.1</probabilities>
		</cpt>
		<cpt id="STRAT_90134">
			<state id="state1" />
			<state id="state2" />
			<probabilities>0.5 0.5</probabilities>
		</cpt>
		<cpt id="NORMAL52135">
			<state id="state1" />
			<state id="state2" />
			<probabilities>0.646 0.354</probabilities>
		</cpt>
		<cpt id="INCLINE51136">
			<state id="state1" />
			<state id="state2" />
			<probabilities>1 0</probabilities>
		</cpt>
		<cpt id="SNode_91137">
			<state id="state1" />
			<state id="state2" />
			<probabilities>0.5 0.5</probabilities>
		</cpt>
		<cpt id="HORIZ53138">
			<state id="state1" />
			<state id="state2" />
			<probabilities>0.8 0.2</probabilities>
		</cpt>
		<cpt id="BUGGY54139">
			<state id="state1" />
			<state id="state2" />
			<probabilities>0.2 0.8</probabilities>
		</cpt>
		<cpt id="SNode_92140">
			<state id="state1" />
			<state id="state2" />
			<probabilities>0.8 0.2</probabilities>
		</cpt>
		<cpt id="IDENTIFY55141">
			<state id="state1" />
			<state id="state2" />
			<probabilities>0.5 0.5</probabilities>
		</cpt>
		<cpt id="SNode_93142">
			<state id="state1" />
			<state id="state2" />
			<probabilities>0.8 0.2</probabilities>
		</cpt>
		<cpt id="WEIGHT56143">
			<state id="state1" />
			<state id="state2" />
			<probabilities>0.3 0.7</probabilities>
		</cpt>
		<cpt id="SNode_94144">
			<state id="state1" />
			<state id="state2" />
			<probabilities>0.9 0.1</probabilities>
		</cpt>
		<cpt id="WEIGHT57145">
			<state id="state1" />
			<state id="state2" />
			<probabilities>0.3 0.7</probabilities>
		</cpt>
		<cpt id="SNode_95146">
			<state id="state1" />
			<state id="state2" />
			<probabilities>0.8 0.2</probabilities>
		</cpt>
		<cpt id="SNode_97147">
			<state id="state1" />
			<state id="state2" />
			<probabilities>0.8 0.2</probabilities>
		</cpt>
		<cpt id="FIND58148">
			<state id="state1" />
			<state id="state2" />
			<probabilities>0.7 0.3</probabilities>
		</cpt>
		<cpt id="GOAL_99149">
			<state id="state1" />
			<state id="state2" />
			<probabilities>0.8 0.2</probabilities>
		</cpt>
		<cpt id="IDENTIFY59150">
			<state id="state1" />
			<state id="state2" />
			<probabilities>0.5 0.5</probabilities>
		</cpt>
		<cpt id="SNode_100151">
			<state id="state1" />
			<state id="state2" />
			<probabilities>0.8 0.2</probabilities>
		</cpt>
		<cpt id="FORCE60152">
			<state id="state1" />
			<state id="state2" />
			<probabilities>0.2 0.8</probabilities>
		</cpt>
		<cpt id="SNode_102153">
			<state id="state1" />
			<state id="state2" />
			<probabilities>0.9 0.1</probabilities>
		</cpt>
		<cpt id="APPLY61154">
			<state id="state1" />
			<state id="state2" />
			<probabilities>0.5 0.5</probabilities>
		</cpt>
		<cpt id="GOAL_103155">
			<state id="state1" />
			<state id="state2" />
			<probabilities>0.8 0.2</probabilities>
		</cpt>
		<cpt id="CHOOSE62156">
			<state id="state1" />
			<state id="state2" />
			<probabilities>0.5 0.5</probabilities>
		</cpt>
		<cpt id="GOAL_104157">
			<state id="state1" />
			<state id="state2" />
			<probabilities>0.8 0.2</probabilities>
		</cpt>
		<cpt id="SNode_106158">
			<state id="state1" />
			<state id="state2" />
			<probabilities>0.8 0.2</probabilities>
		</cpt>
		<cpt id="SNode_152159">
			<state id="state1" />
			<state id="state2" />
			<probabilities>0.8 0.2</probabilities>
		</cpt>
		<cpt id="WRITE63160">
			<state id="state1" />
			<state id="state2" />
			<probabilities>0.5 0.5</probabilities>
		</cpt>
		<cpt id="GOAL_107161">
			<state id="state1" />
			<state id="state2" />
			<probabilities>0.8 0.2</probabilities>
		</cpt>
		<cpt id="WRITE64162">
			<state id="state1" />
			<state id="state2" />
			<probabilities>0.5 0.5</probabilities>
		</cpt>
		<cpt id="GOAL_108163">
			<state id="state1" />
			<state id="state2" />
			<probabilities>0.8 0.2</probabilities>
		</cpt>
		<cpt id="GOAL_109164">
			<state id="state1" />
			<state id="state2" />
			<probabilities>0.8 0.2</probabilities>
		</cpt>
		<cpt id="GOAL65165">
			<state id="state1" />
			<state id="state2" />
			<probabilities>0.5 0.5</probabilities>
		</cpt>
		<cpt id="GOAL_110166">
			<state id="state1" />
			<state id="state2" />
			<probabilities>0.8 0.2</probabilities>
		</cpt>
		<cpt id="GOAL66167">
			<state id="state1" />
			<state id="state2" />
			<probabilities>0.6 0.4</probabilities>
		</cpt>
		<cpt id="GOAL_111168">
			<state id="state1" />
			<state id="state2" />
			<probabilities>0.8 0.2</probabilities>
		</cpt>
		<cpt id="NEED67169">
			<state id="state1" />
			<state id="state2" />
			<probabilities>0.5 0.5</probabilities>
		</cpt>
		<cpt id="RApp7170">
			<state id="state1" />
			<state id="state2" />
			<probabilities>1 0</probabilities>
		</cpt>
		<cpt id="RApp8171">
			<state id="state1" />
			<state id="state2" />
			<probabilities>1 0</probabilities>
		</cpt>
		<cpt id="SNode_112172">
			<state id="state1" />
			<state id="state2" />
			<probabilities>0.8 0.2</probabilities>
		</cpt>
		<cpt id="GOAL68173">
			<state id="state1" />
			<state id="state2" />
			<probabilities>0.5 0.5</probabilities>
		</cpt>
		<cpt id="GOAL_113174">
			<state id="state1" />
			<state id="state2" />
			<probabilities>0.8 0.2</probabilities>
		</cpt>
		<cpt id="GOAL_114175">
			<state id="state1" />
			<state id="state2" />
			<probabilities>0.8 0.2</probabilities>
		</cpt>
		<cpt id="SNode_115176">
			<state id="state1" />
			<state id="state2" />
			<probabilities>0.8 0.2</probabilities>
		</cpt>
		<cpt id="VECTOR69177">
			<state id="state1" />
			<state id="state2" />
			<probabilities>0.7 0.3</probabilities>
		</cpt>
		<cpt id="SNode_116178">
			<state id="state1" />
			<state id="state2" />
			<probabilities>0.5 0.5</probabilities>
		</cpt>
		<cpt id="SNode_117179">
			<state id="state1" />
			<state id="state2" />
			<probabilities>0.8 0.2</probabilities>
		</cpt>
		<cpt id="VECTOR70180">
			<state id="state1" />
			<state id="state2" />
			<probabilities>0.1 0.9</probabilities>
		</cpt>
		<cpt id="SNode_118181">
			<state id="state1" />
			<state id="state2" />
			<probabilities>0.8 0.2</probabilities>
		</cpt>
		<cpt id="EQUAL71182">
			<state id="state1" />
			<state id="state2" />
			<probabilities>0.4 0.6</probabilities>
		</cpt>
		<cpt id="SNode_119183">
			<state id="state1" />
			<state id="state2" />
			<probabilities>0.9 0.1</probabilities>
		</cpt>
		<cpt id="SNode_120184">
			<state id="state1" />
			<state id="state2" />
			<probabilities>0.5 0.5</probabilities>
		</cpt>
		<cpt id="GOAL72185">
			<state id="state1" />
			<state id="state2" />
			<probabilities>0.5 0.5</probabilities>
		</cpt>
		<cpt id="GOAL_121186">
			<state id="state1" />
			<state id="state2" />
			<probabilities>0.8 0.2</probabilities>
		</cpt>
		<cpt id="SNode_122187">
			<state id="state1" />
			<state id="state2" />
			<probabilities>0.8 0.2</probabilities>
		</cpt>
		<cpt id="VECTOR73188">
			<state id="state1" />
			<state id="state2" />
			<probabilities>0.5 0.5</probabilities>
		</cpt>
		<cpt id="SNode_123189">
			<state id="state1" />
			<state id="state2" />
			<probabilities>0.5 0.5</probabilities>
		</cpt>
		<cpt id="NEWTONS74190">
			<state id="state1" />
			<state id="state2" />
			<probabilities>0.5 0.5</probabilities>
		</cpt>
		<cpt id="SNode_124191">
			<state id="state1" />
			<state id="state2" />
			<probabilities>0.5 0.5</probabilities>
		</cpt>
		<cpt id="SUM75192">
			<state id="state1" />
			<state id="state2" />
			<probabilities>0.5 0.5</probabilities>
		</cpt>
		<cpt id="SNode_125193">
			<state id="state1" />
			<state id="state2" />
			<probabilities>0.9 0.1</probabilities>
		</cpt>
		<cpt id="GOAL_126194">
			<state id="state1" />
			<state id="state2" />
			<probabilities>0.8 0.2</probabilities>
		</cpt>
		<cpt id="GOAL_127195">
			<state id="state1" />
			<state id="state2" />
			<probabilities>0.8 0.2</probabilities>
		</cpt>
		<cpt id="RApp9196">
			<state id="state1" />
			<state id="state2" />
			<probabilities>1 0</probabilities>
		</cpt>
		<cpt id="RApp10197">
			<state id="state1" />
			<state id="state2" />
			<probabilities>1 0</probabilities>
		</cpt>
		<cpt id="SNode_128198">
			<state id="state1" />
			<state id="state2" />
			<probabilities>0.8 0.2</probabilities>
		</cpt>
		<cpt id="GOAL_129199">
			<state id="state1" />
			<state id="state2" />
			<probabilities>0.8 0.2</probabilities>
		</cpt>
		<cpt id="GOAL_130200">
			<state id="state1" />
			<state id="state2" />
			<probabilities>0.8 0.2</probabilities>
		</cpt>
		<cpt id="SNode_131201">
			<state id="state1" />
			<state id="state2" />
			<probabilities>0.8 0.2</probabilities>
		</cpt>
		<cpt id="SNode_132202">
			<state id="state1" />
			<state id="state2" />
			<probabilities>0.5 0.5</probabilities>
		</cpt>
		<cpt id="SNode_133203">
			<state id="state1" />
			<state id="state2" />
			<probabilities>0.8 0.2</probabilities>
		</cpt>
		<cpt id="SNode_134204">
			<state id="state1" />
			<state id="state2" />
			<probabilities>0.5 0.5</probabilities>
		</cpt>
		<cpt id="SNode_135205">
			<state id="state1" />
			<state id="state2" />
			<probabilities>0.5 0.5</probabilities>
		</cpt>
		<cpt id="SNode_154206">
			<state id="state1" />
			<state id="state2" />
			<probabilities>0.8 0.2</probabilities>
		</cpt>
		<cpt id="SNode_136207">
			<state id="state1" />
			<state id="state2" />
			<probabilities>0.5 0.5</probabilities>
		</cpt>
		<cpt id="SNode_137208">
			<state id="state1" />
			<state id="state2" />
			<probabilities>0.9 0.1</probabilities>
		</cpt>
		<cpt id="GOAL_142209">
			<state id="state1" />
			<state id="state2" />
			<probabilities>0.8 0.2</probabilities>
		</cpt>
		<cpt id="GOAL_143210">
			<state id="state1" />
			<state id="state2" />
			<probabilities>0.8 0.2</probabilities>
		</cpt>
		<cpt id="GOAL_146211">
			<state id="state1" />
			<state id="state2" />
			<probabilities>0.8 0.2</probabilities>
		</cpt>
		<cpt id="RApp11212">
			<state id="state1" />
			<state id="state2" />
			<probabilities>1 0</probabilities>
		</cpt>
		<cpt id="RApp12213">
			<state id="state1" />
			<state id="state2" />
			<probabilities>1 0</probabilities>
		</cpt>
		<cpt id="RApp13214">
			<state id="state1" />
			<state id="state2" />
			<probabilities>1 0</probabilities>
		</cpt>
		<cpt id="GOAL_147215">
			<state id="state1" />
			<state id="state2" />
			<probabilities>0.8 0.2</probabilities>
		</cpt>
		<cpt id="TRY76216">
			<state id="state1" />
			<state id="state2" />
			<probabilities>0.5 0.5</probabilities>
		</cpt>
		<cpt id="GOAL_149217">
			<state id="state1" />
			<state id="state2" />
			<probabilities>0.7 0.3</probabilities>
		</cpt>
		<cpt id="APPLY77218">
			<state id="state1" />
			<state id="state2" />
			<probabilities>0.5 0.5</probabilities>
		</cpt>
		<cpt id="GOAL_150219">
			<state id="state1" />
			<state id="state2" />
			<probabilities>0.8 0.2</probabilities>
		</cpt>
		<cpt id="GRAV78220">
			<state id="state1" />
			<state id="state2" />
			<probabilities>0.5 0.5</probabilities>
		</cpt>
		<cpt id="SNode_151221">
			<state id="state1" />
			<state id="state2" />
			<probabilities>0.9 0.1</probabilities>
		</cpt>
		<cpt id="GOAL_153222">
			<state id="state1" />
			<state id="state2" />
			<probabilities>0.8 0.2</probabilities>
		</cpt>
		<cpt id="SNode_155223">
			<state id="state1" />
			<state id="state2" />
			<probabilities>0.5 0.5</probabilities>
		</cpt>
		<cpt id="GOAL_2224">
			<state id="state1" />
			<state id="state2" />
			<parents>BUGGY54139</parents>
			<probabilities>0.01640537049216111 0.9835946295078389 0.02333410976665891 0.9766658902333412</probabilities>
		</cpt>
		<cpt id="SNode_3225">
			<state id="state1" />
			<state id="state2" />
			<parents>KNOWN633 SNode_46125</parents>
			<probabilities>0.01878963131527419 0.9812103686847258 0.0007694221599379862 0.999230577840062 0.007968088892425954 0.9920319111075739 0.08901102691209512 0.9109889730879049</probabilities>
		</cpt>
		<cpt id="SNode_4226">
			<state id="state1" />
			<state id="state2" />
			<probabilities>0.02 0.98</probabilities>
		</cpt>
		<cpt id="SNode_5227">
			<state id="state1" />
			<state id="state2" />
			<parents>GOAL_129199 INCLINE51136</parents>
			<probabilities>0.002048640916005722 0.9979513590839942 0.08822101823557962 0.9117789817644203 0.0007955454638026814 0.9992044545361974 0.0009702663326979755 0.9990297336673022</probabilities>
		</cpt>
		<cpt id="SNode_6228">
			<state id="state1" />
			<state id="state2" />
			<probabilities>0.02 0.98</probabilities>
		</cpt>
		<cpt id="SNode_7229">
			<state id="state1" />
			<state id="state2" />
			<parents>GIVEN2161 SNode_116178</parents>
			<probabilities>0.0847165 0.9152835 0.01076781978464361 0.9892321802153563 0.0168109803362196 0.9831890196637803 0.05226560947734391 0.9477343905226562</probabilities>
		</cpt>
		<cpt id="DISPLACEM0230">
			<state id="state1" />
			<state id="state2" />
			<probabilities>0.5 0.5</probabilities>
		</cpt>
		<cpt id="RApp1231">
			<state id="state1" />
			<state id="state2" />
			<parents>DISPLACEM0230 SNode_3225</parents>
			<probabilities>1 0 1 0 1 0 0.0001 0.9999</probabilities>
		</cpt>
		<cpt id="GIVEN_1232">
			<state id="state1" />
			<state id="state2" />
			<parents>SNode_2428 RApp13214 SNode_2530</parents>
			<probabilities>0.0131477802629556 0.9868522197370443 0.2803216 0.7196784000000001 0.0174801196503976 0.9825198803496024 0.01853356074134243 0.9814664392586577 0.01132395056619753 0.9886760494338026 0.01599741968005161 0.9840025803199485 0.0143337901433379 0.985666209856662 0.006089565213134783 0.9939104347868654</probabilities>
		</cpt>
		<cpt id="RApp2233">
			<state id="state1" />
			<state id="state2" />
			<parents>GIVEN_1232</parents>
			<probabilities>1 0 0.0001 0.9999</probabilities>
		</cpt>
		<cpt id="SNode_8234">
			<state id="state1" />
			<state id="state2" />
			<parents>RApp1231 RApp2233</parents>
			<probabilities>0.8 0.2 0 1 0 1 0 1</probabilities>
		</cpt>
		<cpt id="SNode_9235">
			<state id="state1" />
			<state id="state2" />
			<parents>GOAL_129199 SNode_132202</parents>
			<probabilities>0.02849752914507412 0.9715024708549259 0.004891675122291879 0.9951083248777082 0.01315665065783253 0.9868433493421676 0.0133158901331589 0.9866841098668411</probabilities>
		</cpt>
		<cpt id="SNode_10236">
			<state id="state1" />
			<state id="state2" />
			<probabilities>0.02 0.98</probabilities>
		</cpt>
		<cpt id="SNode_11237">
			<state id="state1" />
			<state id="state2" />
			<parents>IDENTIFY953 SNode_65 SNode_4282</parents>
			<probabilities>0.01128412966147611 0.9887158703385238 0.005782626843869076 0.994217373156131 0.009116465319076289 0.9908835346809238 0.02672767080183012 0.9732723291981699 0.003519076084457826 0.9964809239155422 0.001408077032385772 0.9985919229676142 0.008549101982901796 0.9914508980170983 0.037741 0.962259</probabilities>
		</cpt>
		<cpt id="SNode_12238">
			<state id="state1" />
			<state id="state2" />
			<parents>FIND58148 IDENTIFY22119 SNode_65127</parents>
			<probabilities>0.05390601892187963 0.9460939810781205 0.01954764902261755 0.9804523509773826 0.002013207983894336 0.9979867920161056 0.0009983779220641522 0.9990016220779359 0.0004910457775101034 0.9995089542224899 0.007786832743034519 0.9922131672569654 0.002950388035404656 0.9970496119645953 0.001697037935512559 0.9983029620644874</probabilities>
		</cpt>
		<cpt id="SNode_13239">
			<state id="state1" />
			<state id="state2" />
			<parents>IDENTIFY953 SNode_116178</parents>
			<probabilities>0.003659724908506878 0.9963402750914933 0.03133386125335445 0.9686661387466454 0.0005459008995086891 0.9994540991004912 0.08097379080973791 0.919026209190262</probabilities>
		</cpt>
		<cpt id="SNode_14240">
			<state id="state1" />
			<state id="state2" />
			<probabilities>0.02 0.98</probabilities>
		</cpt>
		<cpt id="SNode_15241">
			<state id="state1" />
			<state id="state2" />
			<parents>RApp438 GOAL_129199 SNode_2428</parents>
			<probabilities>0.03033997091019913 0.9696600290898009 0.02305723907771044 0.9769427609222895 0.02809319028093191 0.9719068097190681 0.01464692956059211 0.9853530704394078 0.001311051931825299 0.9986889480681747 0.01436508028730161 0.9856349197126983 0.001441485021622276 0.9985585149783779 0.01563487046904611 0.9843651295309539</probabilities>
		</cpt>
		<cpt id="SNode_16242">
			<state id="state1" />
			<state id="state2" />
			<probabilities>0.02 0.98</probabilities>
		</cpt>
		<cpt id="SNode_17243">
			<state id="state1" />
			<state id="state2" />
			<parents>EQUAL71182 EQUATION28102 GOAL_4841</parents>
			<probabilities>0.0002808258927266094 0.9997191741072735 0.0117067098829329 0.9882932901170672 0.03762360962376391 0.9623763903762362 0.02042158040843161 0.9795784195915683 0.03390785169539259 0.9660921483046076 0.02995527089865813 0.9700447291013419 0.009875297029625892 0.9901247029703741 0.01177471976450561 0.9882252802354945</probabilities>
		</cpt>
		<cpt id="SNode_18244">
			<state id="state1" />
			<state id="state2" />
			<parents>SNode_2854</parents>
			<probabilities>0.0236133 0.9763867000000001 0.0100395197992096 0.9899604802007904</probabilities>
		</cpt>
		<cpt id="SNode_19245">
			<state id="state1" />
			<state id="state2" />
			<parents>IDENTIFY4393 RApp8171</parents>
			<probabilities>0.01760402947187912 0.9823959705281209 0.02648454867577257 0.9735154513242276 0.01833069018330691 0.9816693098166931 0.006404798012809595 0.9935952019871903</probabilities>
		</cpt>
		<cpt id="NEED1246">
			<state id="state1" />
			<state id="state2" />
			<probabilities>0.5 0.5</probabilities>
		</cpt>
		<cpt id="SNode_20247">
			<state id="state1" />
			<state id="state2" />
			<parents>SNode_16242 NEED1246</parents>
			<probabilities>0.8 0.2 0.8 0.2 0.8 0.2 8.000000000000001e-005 0.99992</probabilities>
		</cpt>
		<cpt id="GRAV2248">
			<state id="state1" />
			<state id="state2" />
			<parents>GOAL_103155 SNode_37120 IDENTIFY22119</parents>
			<probabilities>0.5900258 0.4099742 0.274104 0.725896 0.4003902 0.5996098 0.03562853857485845 0.9643714614251415 0.4273088 0.5726912 0.05552498111049963 0.9444750188895005 0.9687522096875221 0.03124779031247791 0.2258512 0.7741488</probabilities>
		</cpt>
		<cpt id="SNode_21249">
			<state id="state1" />
			<state id="state2" />
			<parents>SNode_20247 GRAV2248</parents>
			<probabilities>0.8 0.2 0.8 0.2 0.8 0.2 8.000000000000001e-005 0.99992</probabilities>
		</cpt>
		<cpt id="VALUE3250">
			<state id="state1" />
			<state id="state2" />
			<parents>SNode_88133</parents>
			<probabilities>0.4026835 0.5973165 0.7989234 0.2010766</probabilities>
		</cpt>
		<cpt id="SNode_24251">
			<state id="state1" />
			<state id="state2" />
			<parents>SNode_21249 VALUE3250</parents>
			<probabilities>0.9 0.1 0.9 0.1 0.9 0.1 9.000000000000001e-005 0.99991</probabilities>
		</cpt>
		<cpt id="SLIDING4252">
			<state id="state1" />
			<state id="state2" />
			<probabilities>0.1 0.9</probabilities>
		</cpt>
		<cpt id="SNode_25253">
			<state id="state1" />
			<state id="state2" />
			<parents>SNode_15241 SLIDING4252</parents>
			<probabilities>0.9 0.1 0.9 0.1 0.9 0.1 9.000000000000001e-005 0.99991</probabilities>
		</cpt>
		<cpt id="CONSTANT5254">
			<state id="state1" />
			<state id="state2" />
			<parents>KNOWN633</parents>
			<probabilities>0.5240088000000001 0.4759912 0.4755061 0.5244939</probabilities>
		</cpt>
		<cpt id="SNode_26255">
			<state id="state1" />
			<state id="state2" />
			<parents>SNode_11237 CONSTANT5254</parents>
			<probabilities>0.8 0.2 0.8 0.2 0.8 0.2 8.000000000000001e-005 0.99992</probabilities>
		</cpt>
		<cpt id="KNOWN6256">
			<state id="state1" />
			<state id="state2" />
			<parents>SNode_1417</parents>
			<probabilities>0.9847841901521581 0.0152158098478419 0.4899045 0.5100955</probabilities>
		</cpt>
		<cpt id="VELOCITY7257">
			<state id="state1" />
			<state id="state2" />
			<probabilities>0.5 0.5</probabilities>
		</cpt>
		<cpt id="SNode_47258">
			<state id="state1" />
			<state id="state2" />
			<parents>SNode_3225 VELOCITY7257</parents>
			<probabilities>0.8 0.2 0.8 0.2 0.8 0.2 8.000000000000001e-005 0.99992</probabilities>
		</cpt>
		<cpt id="RApp3259">
			<state id="state1" />
			<state id="state2" />
			<parents>KNOWN6256 SNode_26255 SNode_47258</parents>
			<probabilities>1 0 1 0 1 0 1 0 1 0 1 0 1 0 0.0001 0.9999</probabilities>
		</cpt>
		<cpt id="KNOWN8260">
			<state id="state1" />
			<state id="state2" />
			<parents>GOAL_108163 GOAL_6686 SNode_5970</parents>
			<probabilities>0.4103592 0.5896408 0.8571605 0.1428395 0.5025566 0.4974434 0.6992153 0.3007847 0.3220859 0.6779141 0.4989606 0.5010394 0.6135471 0.3864529 0.1563499 0.8436501</probabilities>
		</cpt>
		<cpt id="RApp4261">
			<state id="state1" />
			<state id="state2" />
			<parents>KNOWN8260 SNode_11237</parents>
			<probabilities>1 0 1 0 1 0 0.0001 0.9999</probabilities>
		</cpt>
		<cpt id="SNode_27262">
			<state id="state1" />
			<state id="state2" />
			<parents>RApp3259 RApp4261</parents>
			<probabilities>0.8 0.2 0 1 0 1 0 1</probabilities>
		</cpt>
		<cpt id="COMPO16263">
			<state id="state1" />
			<state id="state2" />
			<probabilities>0.5 0.5</probabilities>
		</cpt>
		<cpt id="GOAL_48264">
			<state id="state1" />
			<state id="state2" />
			<parents>GOAL_2224 COMPO16263</parents>
			<probabilities>0.8 0.2 0.8 0.2 0.8 0.2 8.000000000000001e-005 0.99992</probabilities>
		</cpt>
		<cpt id="TRY12265">
			<state id="state1" />
			<state id="state2" />
			<probabilities>0.7 0.3</probabilities>
		</cpt>
		<cpt id="TRY11266">
			<state id="state1" />
			<state id="state2" />
			<parents>TRY12265</parents>
			<probabilities>0.8 0.2 0 1</probabilities>
		</cpt>
		<cpt id="GOAL_49267">
			<state id="state1" />
			<state id="state2" />
			<parents>SNode_5227 SNode_6228 GOAL_48264 TRY11266</parents>
			<probabilities>0.8 0.2 0.8 0.2 0.8 0.2 0.8 0.2 0.8 0.2 0.8 0.2 0.8 0.2 0.8 0.2 0.8 0.2 0.8 0.2 0.8 0.2 0.8 0.2 0.8 0.2 0.8 0.2 0.8 0.2 8.000000000000001e-005 0.99992</probabilities>
		</cpt>
		<cpt id="CHOOSE19268">
			<state id="state1" />
			<state id="state2" />
			<probabilities>0.5 0.5</probabilities>
		</cpt>
		<cpt id="GOAL_50269">
			<state id="state1" />
			<state id="state2" />
			<parents>GOAL_49267 CHOOSE19268</parents>
			<probabilities>0.8 0.2 0.8 0.2 0.8 0.2 8.000000000000001e-005 0.99992</probabilities>
		</cpt>
		<cpt id="SYSTEM18270">
			<state id="state1" />
			<state id="state2" />
			<parents>SNode_1619</parents>
			<probabilities>0.4345267 0.5654733 0.5013908 0.4986092</probabilities>
		</cpt>
		<cpt id="SNode_51271">
			<state id="state1" />
			<state id="state2" />
			<parents>SNode_17243 GOAL_50269 SYSTEM18270</parents>
			<probabilities>0.9 0.1 0.9 0.1 0.9 0.1 0.9 0.1 0.9 0.1 0.9 0.1 0.9 0.1 9.000000000000001e-005 0.99991</probabilities>
		</cpt>
		<cpt id="KINEMATI17272">
			<state id="state1" />
			<state id="state2" />
			<parents>TRY25108 CHOOSE1945</parents>
			<probabilities>0.9468452000000001 0.0531548 0.4726797 0.5273203 0.06515668130313361 0.9348433186968663 0.5237834 0.4762166</probabilities>
		</cpt>
		<cpt id="SNode_52273">
			<state id="state1" />
			<state id="state2" />
			<parents>SNode_51271 KINEMATI17272</parents>
			<probabilities>0.8 0.2 0.8 0.2 0.8 0.2 8.000000000000001e-005 0.99992</probabilities>
		</cpt>
		<cpt id="IDENTIFY10274">
			<state id="state1" />
			<state id="state2" />
			<parents>RApp8171 SNode_137208 APPLY77218</parents>
			<probabilities>0.4112992411299241 0.5887007588700759 0.8400967840096785 0.1599032159903216 0.9493711949371195 0.05062880506288051 0.04572641411537727 0.9542735858846227 0.5342612534261254 0.4657387465738747 0.591294359129436 0.4087056408705641 0.1491274149127415 0.8508725850872586 0.5035741007148201 0.4964258992851799</probabilities>
		</cpt>
		<cpt id="GOAL_53275">
			<state id="state1" />
			<state id="state2" />
			<parents>GOAL_49267 SNode_52273 IDENTIFY10274</parents>
			<probabilities>0.8 0.2 0.8 0.2 0.8 0.2 0.8 0.2 0.8 0.2 0.8 0.2 0.8 0.2 8.000000000000001e-005 0.99992</probabilities>
		</cpt>
		<cpt id="IDENTIFY9276">
			<state id="state1" />
			<state id="state2" />
			<probabilities>0.5 0.5</probabilities>
		</cpt>
		<cpt id="SNode_28277">
			<state id="state1" />
			<state id="state2" />
			<parents>SNode_27262 GOAL_53275 IDENTIFY9276</parents>
			<probabilities>0.8 0.2 0.8 0.2 0.8 0.2 0.8 0.2 0.8 0.2 0.8 0.2 0.8 0.2 8.000000000000001e-005 0.99992</probabilities>
		</cpt>
		<cpt id="TRY13278">
			<state id="state1" />
			<state id="state2" />
			<parents>TRY12265</parents>
			<probabilities>0.8 0.2 0 1</probabilities>
		</cpt>
		<cpt id="TRY14279">
			<state id="state1" />
			<state id="state2" />
			<parents>TRY12265</parents>
			<probabilities>0.9 0.1 0 1</probabilities>
		</cpt>
		<cpt id="TRY15280">
			<state id="state1" />
			<state id="state2" />
			<parents>TRY12265</parents>
			<probabilities>0.9 0.1 0 1</probabilities>
		</cpt>
		<cpt id="VAR20281">
			<state id="state1" />
			<state id="state2" />
			<probabilities>0.3 0.7</probabilities>
		</cpt>
		<cpt id="SNode_29282">
			<state id="state1" />
			<state id="state2" />
			<parents>SNode_28277 VAR20281</parents>
			<probabilities>0.8 0.2 0.8 0.2 0.8 0.2 8.000000000000001e-005 0.99992</probabilities>
		</cpt>
		<cpt id="SNode_31283">
			<state id="state1" />
			<state id="state2" />
			<parents>SNode_29282 VALUE3250</parents>
			<probabilities>0.9 0.1 0.9 0.1 0.9 0.1 9.000000000000001e-005 0.99991</probabilities>
		</cpt>
		<cpt id="GIVEN21284">
			<state id="state1" />
			<state id="state2" />
			<probabilities>0.1 0.9</probabilities>
		</cpt>
		<cpt id="SNode_33285">
			<state id="state1" />
			<state id="state2" />
			<parents>SNode_10236 GIVEN21284</parents>
			<probabilities>0.9 0.1 0.9 0.1 0.9 0.1 9.000000000000001e-005 0.99991</probabilities>
		</cpt>
		<cpt id="SNode_34286">
			<state id="state1" />
			<state id="state2" />
			<parents>SNode_10236 CONSTANT5254</parents>
			<probabilities>0.8 0.2 0.8 0.2 0.8 0.2 8.000000000000001e-005 0.99992</probabilities>
		</cpt>
		<cpt id="VECTOR27287">
			<state id="state1" />
			<state id="state2" />
			<parents>GOAL_6991 SYSTEM1847 SNode_154206</parents>
			<probabilities>0.0401236479938176 0.9598763520061825 0.7225809 0.2774191 0.9269599370783975 0.07304006292160253 0.3393633 0.6606367 0.4148845 0.5851155 0.7976526 0.2023474 0.5415797999999999 0.4584202 0.499559 0.500441</probabilities>
		</cpt>
		<cpt id="APPLY32288">
			<state id="state1" />
			<state id="state2" />
			<parents>GOAL_109164 GIVEN_19 NEED123</parents>
			<probabilities>0.2345677 0.7654323 0.4497437 0.5502563 0.3652306 0.6347694 0.1321643 0.8678357 0.490925 0.5090750000000001 0.7924525 0.2075475 0.827079 0.172921 0.3472366 0.6527634</probabilities>
		</cpt>
		<cpt id="GOAL_56289">
			<state id="state1" />
			<state id="state2" />
			<parents>GOAL_49267 SNode_52273 APPLY32288</parents>
			<probabilities>0.8 0.2 0.8 0.2 0.8 0.2 0.8 0.2 0.8 0.2 0.8 0.2 0.8 0.2 8.000000000000001e-005 0.99992</probabilities>
		</cpt>
		<cpt id="CHOOSE35290">
			<state id="state1" />
			<state id="state2" />
			<parents>SNode_65127 NEWTONS45115</parents>
			<probabilities>0.5857425000000001 0.4142575 0.1333261533304614 0.8666738466695387 0.4495791 0.5504209 0.6254125625412563 0.3745874374587438</probabilities>
		</cpt>
		<cpt id="GOAL_57291">
			<state id="state1" />
			<state id="state2" />
			<parents>GOAL_56289 CHOOSE35290</parents>
			<probabilities>0.8 0.2 0.8 0.2 0.8 0.2 8.000000000000001e-005 0.99992</probabilities>
		</cpt>
		<cpt id="MAXIMIZE34292">
			<state id="state1" />
			<state id="state2" />
			<parents>GOAL_146211 GOAL_108163 SNode_4384</parents>
			<probabilities>0.6733362000000001 0.3266638 0.126474 0.873526 0.5509183 0.4490817 0.1821024 0.8178976 0.3031661 0.6968339 0.9539834713804958 0.04601652861950414 0.2111612211161221 0.7888387788838779 0.6396064 0.3603936</probabilities>
		</cpt>
		<cpt id="SNode_59293">
			<state id="state1" />
			<state id="state2" />
			<parents>SNode_7229 GOAL_57291 MAXIMIZE34292</parents>
			<probabilities>0.8 0.2 0.8 0.2 0.8 0.2 0.8 0.2 0.8 0.2 0.8 0.2 0.8 0.2 8.000000000000001e-005 0.99992</probabilities>
		</cpt>
		<cpt id="AXIS33294">
			<state id="state1" />
			<state id="state2" />
			<parents>RESOLVE4090</parents>
			<probabilities>0.1548066 0.8451934 0.2437 0.7563</probabilities>
		</cpt>
		<cpt id="SNode_60295">
			<state id="state1" />
			<state id="state2" />
			<parents>SNode_59293 AXIS33294</parents>
			<probabilities>0.8 0.2 0.8 0.2 0.8 0.2 8.000000000000001e-005 0.99992</probabilities>
		</cpt>
		<cpt id="WRITE31296">
			<state id="state1" />
			<state id="state2" />
			<parents>GIVEN_19</parents>
			<probabilities>0.9217332092173319 0.07826679078266789 0.6527116 0.3472884</probabilities>
		</cpt>
		<cpt id="GOAL_61297">
			<state id="state1" />
			<state id="state2" />
			<parents>GOAL_56289 SNode_60295 WRITE31296</parents>
			<probabilities>0.8 0.2 0.8 0.2 0.8 0.2 0.8 0.2 0.8 0.2 0.8 0.2 0.8 0.2 8.000000000000001e-005 0.99992</probabilities>
		</cpt>
		<cpt id="WRITE30298">
			<state id="state1" />
			<state id="state2" />
			<parents>SNode_43 GOAL_5768 APPLY3265</parents>
			<probabilities>0.3245894 0.6754106 0.4015681 0.5984319 0.5758484 0.4241516 0.5066998 0.4933002 0.5308127 0.4691873 0.6178315 0.3821685 0.48515 0.51485 0.4655417 0.5344583000000001</probabilities>
		</cpt>
		<cpt id="GOAL_62299">
			<state id="state1" />
			<state id="state2" />
			<parents>GOAL_61297 WRITE30298</parents>
			<probabilities>0.8 0.2 0.8 0.2 0.8 0.2 8.000000000000001e-005 0.99992</probabilities>
		</cpt>
		<cpt id="RESOLVE37300">
			<state id="state1" />
			<state id="state2" />
			<parents>GOAL_4841 VECTOR69177</parents>
			<probabilities>0.9979317930144773 0.002068206985522551 0.2793949 0.7206051 0.3423989 0.6576011000000001 0.3539177 0.6460823</probabilities>
		</cpt>
		<cpt id="GOAL_63301">
			<state id="state1" />
			<state id="state2" />
			<parents>SNode_28277 GOAL_62299 RESOLVE37300</parents>
			<probabilities>0.8 0.2 0.8 0.2 0.8 0.2 0.8 0.2 0.8 0.2 0.8 0.2 0.8 0.2 8.000000000000001e-005 0.99992</probabilities>
		</cpt>
		<cpt id="NEED36302">
			<state id="state1" />
			<state id="state2" />
			<probabilities>0.5 0.5</probabilities>
		</cpt>
		<cpt id="SNode_64303">
			<state id="state1" />
			<state id="state2" />
			<parents>GOAL_63301 NEED36302</parents>
			<probabilities>0.8 0.2 0.8 0.2 0.8 0.2 8.000000000000001e-005 0.99992</probabilities>
		</cpt>
		<cpt id="SNode_41304">
			<state id="state1" />
			<state id="state2" />
			<parents>SNode_9235 CONSTANT5254</parents>
			<probabilities>0.8 0.2 0.8 0.2 0.8 0.2 8.000000000000001e-005 0.99992</probabilities>
		</cpt>
		<cpt id="SNode_42305">
			<state id="state1" />
			<state id="state2" />
			<parents>SNode_8234 SNode_41304 KNOWN6256</parents>
			<probabilities>0.8 0.2 0.8 0.2 0.8 0.2 0.8 0.2 0.8 0.2 0.8 0.2 0.8 0.2 8.000000000000001e-005 0.99992</probabilities>
		</cpt>
		<cpt id="IDENTIFY39306">
			<state id="state1" />
			<state id="state2" />
			<probabilities>0.5 0.5</probabilities>
		</cpt>
		<cpt id="SNode_43307">
			<state id="state1" />
			<state id="state2" />
			<parents>SNode_42305 GOAL_53275 IDENTIFY39306</parents>
			<probabilities>0.8 0.2 0.8 0.2 0.8 0.2 0.8 0.2 0.8 0.2 0.8 0.2 0.8 0.2 8.000000000000001e-005 0.99992</probabilities>
		</cpt>
		<cpt id="RESOLVE38308">
			<state id="state1" />
			<state id="state2" />
			<parents>IDENTIFY953</parents>
			<probabilities>0.7379923000000001 0.2620077 0.2661599 0.7338401</probabilities>
		</cpt>
		<cpt id="GOAL_66309">
			<state id="state1" />
			<state id="state2" />
			<parents>SNode_43307 GOAL_62299 RESOLVE38308</parents>
			<probabilities>0.8 0.2 0.8 0.2 0.8 0.2 0.8 0.2 0.8 0.2 0.8 0.2 0.8 0.2 8.000000000000001e-005 0.99992</probabilities>
		</cpt>
		<cpt id="SNode_67310">
			<state id="state1" />
			<state id="state2" />
			<parents>GOAL_66309 NEED36302</parents>
			<probabilities>0.8 0.2 0.8 0.2 0.8 0.2 8.000000000000001e-005 0.99992</probabilities>
		</cpt>
		<cpt id="IDENTIFY41311">
			<state id="state1" />
			<state id="state2" />
			<probabilities>0.5 0.5</probabilities>
		</cpt>
		<cpt id="SNode_54312">
			<state id="state1" />
			<state id="state2" />
			<parents>GOAL_53275 IDENTIFY41311</parents>
			<probabilities>0.8 0.2 0.8 0.2 0.8 0.2 8.000000000000001e-005 0.99992</probabilities>
		</cpt>
		<cpt id="RESOLVE40313">
			<state id="state1" />
			<state id="state2" />
			<parents>SNode_6072 SNode_7092 TRY1355</parents>
			<probabilities>0.4069026 0.5930974 0.7701487 0.2298513 0.2977436 0.7022564 0.2894813 0.7105187 0.5202885 0.4797115 0.6770151 0.3229849 0.4552728 0.5447272 0.2918931 0.7081069</probabilities>
		</cpt>
		<cpt id="GOAL_69314">
			<state id="state1" />
			<state id="state2" />
			<parents>SNode_54312 GOAL_62299 RESOLVE40313</parents>
			<probabilities>0.8 0.2 0.8 0.2 0.8 0.2 0.8 0.2 0.8 0.2 0.8 0.2 0.8 0.2 8.000000000000001e-005 0.99992</probabilities>
		</cpt>
		<cpt id="SNode_70315">
			<state id="state1" />
			<state id="state2" />
			<parents>GOAL_69314 NEED36302</parents>
			<probabilities>0.8 0.2 0.8 0.2 0.8 0.2 8.000000000000001e-005 0.99992</probabilities>
		</cpt>
		<cpt id="IDENTIFY43316">
			<state id="state1" />
			<state id="state2" />
			<parents>RApp13214 SNode_1619</parents>
			<probabilities>0.5969671 0.4030329 0.6372257 0.3627743 0.6111629 0.3888371 0.5150561 0.4849439</probabilities>
		</cpt>
		<cpt id="SNode_55317">
			<state id="state1" />
			<state id="state2" />
			<parents>SNode_34286 GOAL_53275 IDENTIFY43316</parents>
			<probabilities>0.8 0.2 0.8 0.2 0.8 0.2 0.8 0.2 0.8 0.2 0.8 0.2 0.8 0.2 8.000000000000001e-005 0.99992</probabilities>
		</cpt>
		<cpt id="RESOLVE42318">
			<state id="state1" />
			<state id="state2" />
			<probabilities>0.5 0.5</probabilities>
		</cpt>
		<cpt id="GOAL_72319">
			<state id="state1" />
			<state id="state2" />
			<parents>SNode_55317 GOAL_62299 RESOLVE42318</parents>
			<probabilities>0.8 0.2 0.8 0.2 0.8 0.2 0.8 0.2 0.8 0.2 0.8 0.2 0.8 0.2 8.000000000000001e-005 0.99992</probabilities>
		</cpt>
		<cpt id="SNode_73320">
			<state id="state1" />
			<state id="state2" />
			<parents>GOAL_72319 NEED36302</parents>
			<probabilities>0.8 0.2 0.8 0.2 0.8 0.2 8.000000000000001e-005 0.99992</probabilities>
		</cpt>
		<cpt id="KINE29321">
			<state id="state1" />
			<state id="state2" />
			<parents>RApp8171 TRY1242</parents>
			<probabilities>0.6341591 0.3658409 0.3862043 0.6137957000000001 0.2621869 0.7378131 0.4084711 0.5915289</probabilities>
		</cpt>
		<cpt id="SNode_74322">
			<state id="state1" />
			<state id="state2" />
			<parents>GOAL_62299 SNode_64303 SNode_67310 SNode_70315 SNode_73320 KINE29321</parents>
			<probabilities>0.5 0.5 0.5 0.5 0.5 0.5 0.5 0.5 0.5 0.5 0.5 0.5 0.5 0.5 0.5 0.5 0.5 0.5 0.5 0.5 0.5 0.5 0.5 0.5 0.5 0.5 0.5 0.5 0.5 0.5 0.5 0.5 0.5 0.5 0.5 0.5 0.5 0.5 0.5 0.5 0.5 0.5 0.5 0.5 0.5 0.5 0.5 0.5 0.5 0.5 0.5 0.5 0.5 0.5 0.5 0.5 0.5 0.5 0.5 0.5 0.5 0.5 0.5 0.5 0.5 0.5 0.5 0.5 0.5 0.5 0.5 0.5 0.5 0.5 0.5 0.5 0.5 0.5 0.5 0.5 0.5 0.5 0.5 0.5 0.5 0.5 0.5 0.5 0.5 0.5 0.5 0.5 0.5 0.5 0.5 0.5 0.5 0.5 0.5 0.5 0.5 0.5 0.5 0.5 0.5 0.5 0.5 0.5 0.5 0.5 0.5 0.5 0.5 0.5 0.5 0.5 0.5 0.5 0.5 0.5 0.5 0.5 0.5 0.5 0.5 0.5 0.5 0.5</probabilities>
		</cpt>
		<cpt id="VECTOR44323">
			<state id="state1" />
			<state id="state2" />
			<parents>SNode_86114 SNode_155223</parents>
			<probabilities>0.3487309 0.6512691000000001 0.8214908 0.1785092 0.7298543 0.2701457 0.4675292 0.5324708</probabilities>
		</cpt>
		<cpt id="SNode_75324">
			<state id="state1" />
			<state id="state2" />
			<parents>SNode_4226 GOAL_72319 SNode_73320 VECTOR44323</parents>
			<probabilities>0.9 0.1 0.9 0.1 0.9 0.1 0.9 0.1 0.9 0.1 0.9 0.1 0.9 0.1 0.9 0.1 0.9 0.1 0.9 0.1 0.9 0.1 0.9 0.1 0.9 0.1 0.9 0.1 0.9 0.1 9.000000000000001e-005 0.99991</probabilities>
		</cpt>
		<cpt id="EQUATION28325">
			<state id="state1" />
			<state id="state2" />
			<parents>SNode_1518 GOAL_6686</parents>
			<probabilities>0.7904983 0.2095017 0.5352793 0.4647207 0.9479555810408883 0.05204441895911162 0.7976913 0.2023087</probabilities>
		</cpt>
		<cpt id="GOAL_79326">
			<state id="state1" />
			<state id="state2" />
			<parents>SNode_74322 SNode_75324 EQUATION28325</parents>
			<probabilities>0.8 0.2 0.8 0.2 0.8 0.2 0.8 0.2 0.8 0.2 0.8 0.2 0.8 0.2 8.000000000000001e-005 0.99992</probabilities>
		</cpt>
		<cpt id="RApp5327">
			<state id="state1" />
			<state id="state2" />
			<parents>VECTOR27287 GOAL_79326</parents>
			<probabilities>1 0 1 0 1 0 0.0001 0.9999</probabilities>
		</cpt>
		<cpt id="GOAL_80328">
			<state id="state1" />
			<state id="state2" />
			<parents>SNode_75324 EQUATION28325</parents>
			<probabilities>0.8 0.2 0.8 0.2 0.8 0.2 8.000000000000001e-005 0.99992</probabilities>
		</cpt>
		<cpt id="RApp6329">
			<state id="state1" />
			<state id="state2" />
			<parents>COMPO16263 GOAL_80328</parents>
			<probabilities>1 0 1 0 1 0 0.0001 0.9999</probabilities>
		</cpt>
		<cpt id="GOAL_81330">
			<state id="state1" />
			<state id="state2" />
			<parents>RApp5327 RApp6329</parents>
			<probabilities>0.8 0.2 0 1 0 1 0 1</probabilities>
		</cpt>
		<cpt id="TRY25331">
			<state id="state1" />
			<state id="state2" />
			<parents>TRY25108</parents>
			<probabilities>0.09483133620674655 0.9051686637932535 0.1005858 0.8994142000000001</probabilities>
		</cpt>
		<cpt id="TRY24332">
			<state id="state1" />
			<state id="state2" />
			<parents>TRY25331</parents>
			<probabilities>0.95 0.05 0 1</probabilities>
		</cpt>
		<cpt id="GOAL_83333">
			<state id="state1" />
			<state id="state2" />
			<parents>GOAL_81330 TRY24332</parents>
			<probabilities>0.8 0.2 0.8 0.2 0.8 0.2 8.000000000000001e-005 0.99992</probabilities>
		</cpt>
		<cpt id="CHOOSE47334">
			<state id="state1" />
			<state id="state2" />
			<parents>CHOOSE62156 RApp8171 SNode_4735</parents>
			<probabilities>0.7490348498069699 0.25096515019303 0.1592479318495864 0.8407520681504137 0.3151472630294526 0.6848527369705474 0.3860813772162754 0.6139186227837246 0.3739472747894549 0.626052725210545 0.7266638726663873 0.2733361273336128 0.4114201411420141 0.5885798588579859 0.5019097003819401 0.49809029961806</probabilities>
		</cpt>
		<cpt id="GOAL_84335">
			<state id="state1" />
			<state id="state2" />
			<parents>GOAL_83333 CHOOSE47334</parents>
			<probabilities>0.8 0.2 0.8 0.2 0.8 0.2 8.000000000000001e-005 0.99992</probabilities>
		</cpt>
		<cpt id="SYSTEM46336">
			<state id="state1" />
			<state id="state2" />
			<parents>GOAL_130200</parents>
			<probabilities>0.7492132 0.2507868 0.006623245695330698 0.9933767543046692</probabilities>
		</cpt>
		<cpt id="SNode_86337">
			<state id="state1" />
			<state id="state2" />
			<parents>GOAL_84335 SYSTEM46336</parents>
			<probabilities>0.9 0.1 0.9 0.1 0.9 0.1 9.000000000000001e-005 0.99991</probabilities>
		</cpt>
		<cpt id="NEWTONS45338">
			<state id="state1" />
			<state id="state2" />
			<parents>SNode_116178 SNode_155223 GOAL_5666</parents>
			<probabilities>0.2188168 0.7811832 0.839398 0.160602 0.9426271000000001 0.0573729 0.8921016000000001 0.1078984 0.914358 0.085642 0.966699529000986 0.03330047099901413 0.7749821 0.2250179 0.9675129387005175 0.03248706129948245</probabilities>
		</cpt>
		<cpt id="SNode_156339">
			<state id="state1" />
			<state id="state2" />
			<parents>SNode_86337 NEWTONS45338</parents>
			<probabilities>0.8 0.2 0.8 0.2 0.8 0.2 8.000000000000001e-005 0.99992</probabilities>
		</cpt>
		<cpt id="DEFINE23340">
			<state id="state1" />
			<state id="state2" />
			<parents>SNode_46125 SNode_86114</parents>
			<probabilities>0.3779204 0.6220796 0.6178827 0.3821173 0.6595955 0.3404045 0.6412433 0.3587567</probabilities>
		</cpt>
		<cpt id="GOAL_98341">
			<state id="state1" />
			<state id="state2" />
			<parents>GOAL_83333 SNode_156339 DEFINE23340</parents>
			<probabilities>0.8 0.2 0.8 0.2 0.8 0.2 0.8 0.2 0.8 0.2 0.8 0.2 0.8 0.2 8.000000000000001e-005 0.99992</probabilities>
		</cpt>
		<cpt id="IDENTIFY22342">
			<state id="state1" />
			<state id="state2" />
			<parents>VAR2058 SNode_68128 GOAL_153222</parents>
			<probabilities>0.455201 0.544799 0.5336818 0.4663182 0.3026796 0.6973204 0.9255937537203125 0.07440624627968769 0.3517466 0.6482534 0.393366 0.606634 0.3608302 0.6391698 0.5497266 0.4502734</probabilities>
		</cpt>
		<cpt id="SNode_37343">
			<state id="state1" />
			<state id="state2" />
			<parents>GOAL_98341 IDENTIFY22342</parents>
			<probabilities>0.8 0.2 0.8 0.2 0.8 0.2 8.000000000000001e-005 0.99992</probabilities>
		</cpt>
		<cpt id="TRY26344">
			<state id="state1" />
			<state id="state2" />
			<parents>TRY25331</parents>
			<probabilities>0.9 0.1 0 1</probabilities>
		</cpt>
		<cpt id="SNode_38345">
			<state id="state1" />
			<state id="state2" />
			<parents>SNode_37343 VAR20281</parents>
			<probabilities>0.8 0.2 0.8 0.2 0.8 0.2 8.000000000000001e-005 0.99992</probabilities>
		</cpt>
		<cpt id="SNode_40346">
			<state id="state1" />
			<state id="state2" />
			<parents>SNode_38345 VALUE3250</parents>
			<probabilities>0.9 0.1 0.9 0.1 0.9 0.1 9.000000000000001e-005 0.99991</probabilities>
		</cpt>
		<cpt id="SNode_44347">
			<state id="state1" />
			<state id="state2" />
			<parents>SNode_43307 VAR20281</parents>
			<probabilities>0.8 0.2 0.8 0.2 0.8 0.2 8.000000000000001e-005 0.99992</probabilities>
		</cpt>
		<cpt id="SNode_46348">
			<state id="state1" />
			<state id="state2" />
			<parents>SNode_44347 VALUE3250</parents>
			<probabilities>0.9 0.1 0.9 0.1 0.9 0.1 9.000000000000001e-005 0.99991</probabilities>
		</cpt>
		<cpt id="NULL48349">
			<state id="state1" />
			<state id="state2" />
			<parents>NEED67169 SNode_38122</parents>
			<probabilities>0.3012149 0.6987851000000001 0.6746454 0.3253546 0.2974822 0.7025178 0.7458894 0.2541106</probabilities>
		</cpt>
		<cpt id="SNode_65350">
			<state id="state1" />
			<state id="state2" />
			<parents>SNode_29282 GOAL_63301 SNode_64303 NULL48349</parents>
			<probabilities>0.9 0.1 0.9 0.1 0.9 0.1 0.9 0.1 0.9 0.1 0.9 0.1 0.9 0.1 0.9 0.1 0.9 0.1 0.9 0.1 0.9 0.1 0.9 0.1 0.9 0.1 0.9 0.1 0.9 0.1 9.000000000000001e-005 0.99991</probabilities>
		</cpt>
		<cpt id="SNode_68351">
			<state id="state1" />
			<state id="state2" />
			<parents>GOAL_66309 SNode_67310 VECTOR44323</parents>
			<probabilities>0.9 0.1 0.9 0.1 0.9 0.1 0.9 0.1 0.9 0.1 0.9 0.1 0.9 0.1 9.000000000000001e-005 0.99991</probabilities>
		</cpt>
		<cpt id="SNode_71352">
			<state id="state1" />
			<state id="state2" />
			<parents>GOAL_69314 SNode_70315 VECTOR44323</parents>
			<probabilities>0.9 0.1 0.9 0.1 0.9 0.1 0.9 0.1 0.9 0.1 0.9 0.1 0.9 0.1 9.000000000000001e-005 0.99991</probabilities>
		</cpt>
		<cpt id="FIND49353">
			<state id="state1" />
			<state id="state2" />
			<probabilities>0.5 0.5</probabilities>
		</cpt>
		<cpt id="GOAL_87354">
			<state id="state1" />
			<state id="state2" />
			<parents>GOAL_83333 SNode_156339 FIND49353</parents>
			<probabilities>0.7 0.3 0.7 0.3 0.7 0.3 0.7 0.3 0.7 0.3 0.7 0.3 0.7 0.3 6.999999999999999e-005 0.99993</probabilities>
		</cpt>
		<cpt id="NORMAL50355">
			<state id="state1" />
			<state id="state2" />
			<parents>GOAL_84112 SNode_122187 FORCE60152</parents>
			<probabilities>0.3584182358418236 0.6415817641581765 0.2555310255531026 0.7444689744468975 0.6729920672992068 0.3270079327007933 0.9051808181036163 0.09481918189638364 0.6085741 0.3914259 0.5410831541083154 0.4589168458916846 0.1349712269942454 0.8650287730057545 0.6982567094770129 0.3017432905229872</probabilities>
		</cpt>
		<cpt id="SNode_88356">
			<state id="state1" />
			<state id="state2" />
			<parents>SNode_25253 GOAL_87354 NORMAL50355</parents>
			<probabilities>0.9 0.1 0.9 0.1 0.9 0.1 0.9 0.1 0.9 0.1 0.9 0.1 0.9 0.1 9.000000000000001e-005 0.99991</probabilities>
		</cpt>
		<cpt id="STRAT_90357">
			<state id="state1" />
			<state id="state2" />
			<parents>WRITE64162 GOAL_6991 GOAL_98118</parents>
			<probabilities>0.4644054 0.5355946 0.1842045 0.8157955 0.550548 0.449452 0.8398435 0.1601565 0.72622 0.27378 0.7889184 0.2110816 0.6223596 0.3776404 0.756415 0.243585</probabilities>
		</cpt>
		<cpt id="NORMAL52358">
			<state id="state1" />
			<state id="state2" />
			<parents>NEWTONS74190 VECTOR2764</parents>
			<probabilities>0.8205081 0.1794919 0.7491269 0.2508731 0.6042123 0.3957877 0.4190815 0.5809185</probabilities>
		</cpt>
		<cpt id="INCLINE51359">
			<state id="state1" />
			<state id="state2" />
			<parents>NORMAL52358</parents>
			<probabilities>1 0 0 1</probabilities>
		</cpt>
		<cpt id="SNode_91360">
			<state id="state1" />
			<state id="state2" />
			<parents>SNode_88356 SNode_12238 SNode_13239 STRAT_90357 INCLINE51359</parents>
			<probabilities>0.5 0.5 0.5 0.5 0.5 0.5 0.5 0.5 0.5 0.5 0.5 0.5 0.5 0.5 0.5 0.5 0.5 0.5 0.5 0.5 0.5 0.5 0.5 0.5 0.5 0.5 0.5 0.5 0.5 0.5 0.5 0.5 0.5 0.5 0.5 0.5 0.5 0.5 0.5 0.5 0.5 0.5 0.5 0.5 0.5 0.5 0.5 0.5 0.5 0.5 0.5 0.5 0.5 0.5 0.5 0.5 0.5 0.5 0.5 0.5 0.5 0.5 0.5 0.5</probabilities>
		</cpt>
		<cpt id="HORIZ53361">
			<state id="state1" />
			<state id="state2" />
			<parents>NORMAL52358</parents>
			<probabilities>0.8 0.2 0 1</probabilities>
		</cpt>
		<cpt id="BUGGY54362">
			<state id="state1" />
			<state id="state2" />
			<parents>NORMAL52358</parents>
			<probabilities>0.2 0.8 1 0</probabilities>
		</cpt>
		<cpt id="SNode_92363">
			<state id="state1" />
			<state id="state2" />
			<parents>SNode_12238 STRAT_90357 BUGGY54362</parents>
			<probabilities>0.8 0.2 0.8 0.2 0.8 0.2 0.8 0.2 0.8 0.2 8.000000000000001e-005 0.99992 0.8 0.2 0.8 0.2</probabilities>
		</cpt>
		<cpt id="IDENTIFY55364">
			<state id="state1" />
			<state id="state2" />
			<parents>SNode_116178</parents>
			<probabilities>0.5265918000000001 0.4734082 0.2835226 0.7164774</probabilities>
		</cpt>
		<cpt id="SNode_93365">
			<state id="state1" />
			<state id="state2" />
			<parents>GOAL_87354 SNode_88356 IDENTIFY55364</parents>
			<probabilities>0.8 0.2 0.8 0.2 0.8 0.2 0.8 0.2 0.8 0.2 0.8 0.2 0.8 0.2 8.000000000000001e-005 0.99992</probabilities>
		</cpt>
		<cpt id="WEIGHT56366">
			<state id="state1" />
			<state id="state2" />
			<parents>STRAT_90134 SNode_4384 SNode_43</parents>
			<probabilities>0.6859852 0.3140148 0.4317838 0.5682162 0.6451607 0.3548393 0.7218462721846273 0.2781537278153728 0.1530533 0.8469467000000001 0.05191012844269614 0.9480898715573038 0.8710767 0.1289233 0.9072453544347213 0.09275464556527874</probabilities>
		</cpt>
		<cpt id="SNode_94367">
			<state id="state1" />
			<state id="state2" />
			<parents>SNode_16242 SNode_33285 GOAL_87354 WEIGHT56366</parents>
			<probabilities>0.9 0.1 0.9 0.1 0.9 0.1 0.9 0.1 0.9 0.1 0.9 0.1 0.9 0.1 0.9 0.1 0.9 0.1 0.9 0.1 0.9 0.1 0.9 0.1 0.9 0.1 0.9 0.1 0.9 0.1 9.000000000000001e-005 0.99991</probabilities>
		</cpt>
		<cpt id="WEIGHT57368">
			<state id="state1" />
			<state id="state2" />
			<parents>SNode_5970 KNOWN633</parents>
			<probabilities>0.3107019 0.6892981 0.196494 0.8035060000000001 0.3593543 0.6406457 0.2534088 0.7465912</probabilities>
		</cpt>
		<cpt id="SNode_95369">
			<state id="state1" />
			<state id="state2" />
			<parents>SNode_94367 WEIGHT57368</parents>
			<probabilities>0.8 0.2 0.8 0.2 0.8 0.2 8.000000000000001e-005 0.99992</probabilities>
		</cpt>
		<cpt id="SNode_97370">
			<state id="state1" />
			<state id="state2" />
			<parents>GOAL_87354 SNode_94367 IDENTIFY55364</parents>
			<probabilities>0.8 0.2 0.8 0.2 0.8 0.2 0.8 0.2 0.8 0.2 0.8 0.2 0.8 0.2 8.000000000000001e-005 0.99992</probabilities>
		</cpt>
		<cpt id="FIND58371">
			<state id="state1" />
			<state id="state2" />
			<parents>GOAL_6991 SNode_102153 RApp18</parents>
			<probabilities>0.7081342708134272 0.2918657291865729 0.5842447584244759 0.4157552415755242 0.820142 0.179858 0.6932114 0.3067886 0.7449863 0.2550137 0.9844924393796976 0.01550756062030242 0.293859329385933 0.7061406706140672 0.3812639 0.6187361</probabilities>
		</cpt>
		<cpt id="GOAL_99372">
			<state id="state1" />
			<state id="state2" />
			<parents>GOAL_98341 FIND58371</parents>
			<probabilities>0.8 0.2 0.8 0.2 0.8 0.2 8.000000000000001e-005 0.99992</probabilities>
		</cpt>
		<cpt id="IDENTIFY59373">
			<state id="state1" />
			<state id="state2" />
			<parents>SNode_811 SNode_54</parents>
			<probabilities>0.9004910729852678 0.09950892701473219 0.4440698 0.5559302 0.3954637 0.6045363 0.5024174 0.4975826</probabilities>
		</cpt>
		<cpt id="SNode_100374">
			<state id="state1" />
			<state id="state2" />
			<parents>GOAL_98341 IDENTIFY59373</parents>
			<probabilities>0.8 0.2 0.8 0.2 0.8 0.2 8.000000000000001e-005 0.99992</probabilities>
		</cpt>
		<cpt id="FORCE60375">
			<state id="state1" />
			<state id="state2" />
			<parents>RApp18 SUM75192</parents>
			<probabilities>0.1579895157989516 0.8420104842010485 0.3954212 0.6045788 0.1634070163407017 0.8365929836592984 0.0807623448457407 0.9192376551542594</probabilities>
		</cpt>
		<cpt id="SNode_102376">
			<state id="state1" />
			<state id="state2" />
			<parents>GOAL_87354 SNode_88356 SNode_94367 FORCE60375</parents>
			<probabilities>0.9 0.1 0.9 0.1 0.9 0.1 0.9 0.1 0.9 0.1 0.9 0.1 0.9 0.1 0.9 0.1 0.9 0.1 0.9 0.1 0.9 0.1 0.9 0.1 0.9 0.1 0.9 0.1 0.9 0.1 9.000000000000001e-005 0.99991</probabilities>
		</cpt>
		<cpt id="APPLY61377">
			<state id="state1" />
			<state id="state2" />
			<parents>GOAL_127195 RESOLVE4090</parents>
			<probabilities>0.2369928 0.7630072 0.5445142 0.4554858 0.6371426 0.3628574 0.7302557 0.2697443</probabilities>
		</cpt>
		<cpt id="GOAL_103378">
			<state id="state1" />
			<state id="state2" />
			<parents>GOAL_83333 SNode_102376 APPLY61377</parents>
			<probabilities>0.8 0.2 0.8 0.2 0.8 0.2 0.8 0.2 0.8 0.2 0.8 0.2 0.8 0.2 8.000000000000001e-005 0.99992</probabilities>
		</cpt>
		<cpt id="CHOOSE62379">
			<state id="state1" />
			<state id="state2" />
			<parents>SNode_65127 GOAL68173 SNode_123189</parents>
			<probabilities>0.2373975 0.7626025 0.2322396 0.7677604 0.7274191727419173 0.2725808272580828 0.7071682 0.2928318 0.4633304463330447 0.5366695536669555 0.6148227000000001 0.3851773 0.7415071258492874 0.2584928741507126 0.9016906188478444 0.09830938115215571</probabilities>
		</cpt>
		<cpt id="GOAL_104380">
			<state id="state1" />
			<state id="state2" />
			<parents>GOAL_103378 CHOOSE62379</parents>
			<probabilities>0.8 0.2 0.8 0.2 0.8 0.2 8.000000000000001e-005 0.99992</probabilities>
		</cpt>
		<cpt id="SNode_106381">
			<state id="state1" />
			<state id="state2" />
			<parents>GOAL_104380 MAXIMIZE34292</parents>
			<probabilities>0.8 0.2 0.8 0.2 0.8 0.2 8.000000000000001e-005 0.99992</probabilities>
		</cpt>
		<cpt id="SNode_152382">
			<state id="state1" />
			<state id="state2" />
			<parents>SNode_106381 AXIS33294</parents>
			<probabilities>0.8 0.2 0.8 0.2 0.8 0.2 8.000000000000001e-005 0.99992</probabilities>
		</cpt>
		<cpt id="WRITE63383">
			<state id="state1" />
			<state id="state2" />
			<parents>GOAL_114175</parents>
			<probabilities>0.5097551 0.4902449 0.4796282 0.5203718000000001</probabilities>
		</cpt>
		<cpt id="GOAL_107384">
			<state id="state1" />
			<state id="state2" />
			<parents>GOAL_103378 SNode_152382 WRITE63383</parents>
			<probabilities>0.8 0.2 0.8 0.2 0.8 0.2 0.8 0.2 0.8 0.2 0.8 0.2 0.8 0.2 8.000000000000001e-005 0.99992</probabilities>
		</cpt>
		<cpt id="WRITE64385">
			<state id="state1" />
			<state id="state2" />
			<parents>GOAL_87131</parents>
			<probabilities>0.3688831 0.6311169 0.7394790999999999 0.2605209</probabilities>
		</cpt>
		<cpt id="GOAL_108386">
			<state id="state1" />
			<state id="state2" />
			<parents>GOAL_107384 WRITE64385</parents>
			<probabilities>0.8 0.2 0.8 0.2 0.8 0.2 8.000000000000001e-005 0.99992</probabilities>
		</cpt>
		<cpt id="GOAL_109387">
			<state id="state1" />
			<state id="state2" />
			<parents>GOAL_107384 WRITE64385</parents>
			<probabilities>0.8 0.2 0.8 0.2 0.8 0.2 8.000000000000001e-005 0.99992</probabilities>
		</cpt>
		<cpt id="GOAL65388">
			<state id="state1" />
			<state id="state2" />
			<parents>SUM75192 NULL48126 NEED67169</parents>
			<probabilities>0.7076032 0.2923968 0.6996497 0.3003503 0.5825486 0.4174514 0.3422033 0.6577967 0.5594501 0.4405499 0.2894138 0.7105862 0.3765044 0.6234956 0.4313583 0.5686417</probabilities>
		</cpt>
		<cpt id="GOAL_110389">
			<state id="state1" />
			<state id="state2" />
			<parents>GOAL_109387 GOAL65388</parents>
			<probabilities>0.8 0.2 0.8 0.2 0.8 0.2 8.000000000000001e-005 0.99992</probabilities>
		</cpt>
		<cpt id="GOAL66390">
			<state id="state1" />
			<state id="state2" />
			<parents>SNode_38122 GOAL_127195</parents>
			<probabilities>0.6862705 0.3137295 0.4043371 0.5956629 0.7265442 0.2734558 0.5171966 0.4828034</probabilities>
		</cpt>
		<cpt id="GOAL_111391">
			<state id="state1" />
			<state id="state2" />
			<parents>GOAL_109387 GOAL66390</parents>
			<probabilities>0.8 0.2 0.8 0.2 0.8 0.2 8.000000000000001e-005 0.99992</probabilities>
		</cpt>
		<cpt id="NEED67392">
			<state id="state1" />
			<state id="state2" />
			<probabilities>0.5 0.5</probabilities>
		</cpt>
		<cpt id="RApp7393">
			<state id="state1" />
			<state id="state2" />
			<parents>NEED67392 GOAL_109387</parents>
			<probabilities>1 0 1 0 1 0 0.0001 0.9999</probabilities>
		</cpt>
		<cpt id="RApp8394">
			<state id="state1" />
			<state id="state2" />
			<parents>NEED36302 GOAL_111391</parents>
			<probabilities>1 0 1 0 1 0 0.0001 0.9999</probabilities>
		</cpt>
		<cpt id="SNode_112395">
			<state id="state1" />
			<state id="state2" />
			<parents>RApp7393 RApp8394</parents>
			<probabilities>0.8 0.2 0 1 0 1 0 1</probabilities>
		</cpt>
		<cpt id="GOAL68396">
			<state id="state1" />
			<state id="state2" />
			<parents>GOAL_81107 SNode_122187</parents>
			<probabilities>0.3513977 0.6486023 0.7560699 0.2439301 0.2066485 0.7933515 0.9733790486689525 0.02662095133104757</probabilities>
		</cpt>
		<cpt id="GOAL_113397">
			<state id="state1" />
			<state id="state2" />
			<parents>GOAL_110389 GOAL68396</parents>
			<probabilities>0.8 0.2 0.8 0.2 0.8 0.2 8.000000000000001e-005 0.99992</probabilities>
		</cpt>
		<cpt id="GOAL_114398">
			<state id="state1" />
			<state id="state2" />
			<parents>GOAL_110389 GOAL68396</parents>
			<probabilities>0.8 0.2 0.8 0.2 0.8 0.2 8.000000000000001e-005 0.99992</probabilities>
		</cpt>
		<cpt id="SNode_115399">
			<state id="state1" />
			<state id="state2" />
			<parents>GOAL_114398 NEED36302</parents>
			<probabilities>0.8 0.2 0.8 0.2 0.8 0.2 8.000000000000001e-005 0.99992</probabilities>
		</cpt>
		<cpt id="VECTOR69400">
			<state id="state1" />
			<state id="state2" />
			<probabilities>0.7 0.3</probabilities>
		</cpt>
		<cpt id="SNode_116401">
			<state id="state1" />
			<state id="state2" />
			<parents>SNode_95369 SNode_97370 GOAL_114398 SNode_115399 VECTOR69400</parents>
			<probabilities>0.5 0.5 0.5 0.5 0.5 0.5 0.5 0.5 0.5 0.5 0.5 0.5 0.5 0.5 0.5 0.5 0.5 0.5 0.5 0.5 0.5 0.5 0.5 0.5 0.5 0.5 0.5 0.5 0.5 0.5 0.5 0.5 0.5 0.5 0.5 0.5 0.5 0.5 0.5 0.5 0.5 0.5 0.5 0.5 0.5 0.5 0.5 0.5 0.5 0.5 0.5 0.5 0.5 0.5 0.5 0.5 0.5 0.5 0.5 0.5 0.5 0.5 0.5 0.5</probabilities>
		</cpt>
		<cpt id="SNode_117402">
			<state id="state1" />
			<state id="state2" />
			<parents>GOAL_113397 NEED36302</parents>
			<probabilities>0.8 0.2 0.8 0.2 0.8 0.2 8.000000000000001e-005 0.99992</probabilities>
		</cpt>
		<cpt id="VECTOR70403">
			<state id="state1" />
			<state id="state2" />
			<parents>RESOLVE3885</parents>
			<probabilities>0.0824974 0.9175026 0.03006735150336757 0.9699326484966323</probabilities>
		</cpt>
		<cpt id="SNode_118404">
			<state id="state1" />
			<state id="state2" />
			<parents>SNode_91360 GOAL_113397 VECTOR70403</parents>
			<probabilities>0.8 0.2 0.8 0.2 0.8 0.2 0.8 0.2 0.8 0.2 0.8 0.2 0.8 0.2 8.000000000000001e-005 0.99992</probabilities>
		</cpt>
		<cpt id="EQUAL71405">
			<state id="state1" />
			<state id="state2" />
			<parents>GOAL_4841 SNode_134204</parents>
			<probabilities>0.3909813 0.6090187 0.4319611136077773 0.5680388863922228 0.2218621221862122 0.7781378778137879 0.299697019878808 0.7003029801211921</probabilities>
		</cpt>
		<cpt id="SNode_119406">
			<state id="state1" />
			<state id="state2" />
			<parents>SNode_93365 SNode_117402 SNode_118404 EQUAL71405</parents>
			<probabilities>0.9 0.1 0.9 0.1 0.9 0.1 0.9 0.1 0.9 0.1 0.9 0.1 0.9 0.1 0.9 0.1 0.9 0.1 0.9 0.1 0.9 0.1 0.9 0.1 0.9 0.1 0.9 0.1 0.9 0.1 9.000000000000001e-005 0.99991</probabilities>
		</cpt>
		<cpt id="SNode_120407">
			<state id="state1" />
			<state id="state2" />
			<parents>SNode_92363 SNode_93365 GOAL_113397 SNode_117402 VECTOR69400</parents>
			<probabilities>0.5 0.5 0.5 0.5 0.5 0.5 0.5 0.5 0.5 0.5 0.5 0.5 0.5 0.5 0.5 0.5 0.5 0.5 0.5 0.5 0.5 0.5 0.5 0.5 0.5 0.5 0.5 0.5 0.5 0.5 0.5 0.5 0.5 0.5 0.5 0.5 0.5 0.5 0.5 0.5 0.5 0.5 0.5 0.5 0.5 0.5 0.5 0.5 0.5 0.5 0.5 0.5 0.5 0.5 0.5 0.5 0.5 0.5 0.5 0.5 0.5 0.5 0.5 0.5</probabilities>
		</cpt>
		<cpt id="GOAL72408">
			<state id="state1" />
			<state id="state2" />
			<parents>RApp5104 NORMAL52135 SNode_132202</parents>
			<probabilities>0.4301263 0.5698737 0.470933 0.529067 0.5591094 0.4408906 0.8035956 0.1964044 0.9304838906951612 0.06951610930483892 0.7799316 0.2200684 0.06958121860837564 0.9304187813916245 0.3195148 0.6804852</probabilities>
		</cpt>
		<cpt id="GOAL_121409">
			<state id="state1" />
			<state id="state2" />
			<parents>GOAL_109387 GOAL72408</parents>
			<probabilities>0.8 0.2 0.8 0.2 0.8 0.2 8.000000000000001e-005 0.99992</probabilities>
		</cpt>
		<cpt id="SNode_122410">
			<state id="state1" />
			<state id="state2" />
			<parents>GOAL_121409 NEED36302</parents>
			<probabilities>0.8 0.2 0.8 0.2 0.8 0.2 8.000000000000001e-005 0.99992</probabilities>
		</cpt>
		<cpt id="VECTOR73411">
			<state id="state1" />
			<state id="state2" />
			<parents>SNode_71129</parents>
			<probabilities>0.4471782 0.5528218 0.8153134 0.1846866</probabilities>
		</cpt>
		<cpt id="SNode_123412">
			<state id="state1" />
			<state id="state2" />
			<parents>SNode_4226 SNode_100374 GOAL_121409 SNode_122410 VECTOR73411</parents>
			<probabilities>0.5 0.5 0.5 0.5 0.5 0.5 0.5 0.5 0.5 0.5 0.5 0.5 0.5 0.5 0.5 0.5 0.5 0.5 0.5 0.5 0.5 0.5 0.5 0.5 0.5 0.5 0.5 0.5 0.5 0.5 0.5 0.5 0.5 0.5 0.5 0.5 0.5 0.5 0.5 0.5 0.5 0.5 0.5 0.5 0.5 0.5 0.5 0.5 0.5 0.5 0.5 0.5 0.5 0.5 0.5 0.5 0.5 0.5 0.5 0.5 0.5 0.5 0.5 0.5</probabilities>
		</cpt>
		<cpt id="NEWTONS74413">
			<state id="state1" />
			<state id="state2" />
			<parents>RESOLVE3885</parents>
			<probabilities>0.3067416 0.6932584000000001 0.7057061 0.2942939</probabilities>
		</cpt>
		<cpt id="SNode_124414">
			<state id="state1" />
			<state id="state2" />
			<parents>SNode_37343 GOAL_109387 SNode_112395 SNode_122410 NEWTONS74413</parents>
			<probabilities>0.5 0.5 0.5 0.5 0.5 0.5 0.5 0.5 0.5 0.5 0.5 0.5 0.5 0.5 0.5 0.5 0.5 0.5 0.5 0.5 0.5 0.5 0.5 0.5 0.5 0.5 0.5 0.5 0.5 0.5 0.5 0.5 0.5 0.5 0.5 0.5 0.5 0.5 0.5 0.5 0.5 0.5 0.5 0.5 0.5 0.5 0.5 0.5 0.5 0.5 0.5 0.5 0.5 0.5 0.5 0.5 0.5 0.5 0.5 0.5 0.5 0.5 0.5 0.5</probabilities>
		</cpt>
		<cpt id="SUM75415">
			<state id="state1" />
			<state id="state2" />
			<parents>WEIGHT56143 VECTOR2764 RESOLVE4295</parents>
			<probabilities>0.7205136 0.2794864 0.6089379 0.3910621 0.5432841000000001 0.4567159 0.5003173 0.4996827 0.5434433 0.4565567 0.655355 0.344645 0.6128281 0.3871719 0.0544311 0.9455689000000001</probabilities>
		</cpt>
		<cpt id="SNode_125416">
			<state id="state1" />
			<state id="state2" />
			<parents>GOAL_109387 SNode_112395 SUM75415</parents>
			<probabilities>0.9 0.1 0.9 0.1 0.9 0.1 0.9 0.1 0.9 0.1 0.9 0.1 0.9 0.1 9.000000000000001e-005 0.99991</probabilities>
		</cpt>
		<cpt id="GOAL_126417">
			<state id="state1" />
			<state id="state2" />
			<parents>GOAL_108386 GOAL65388</parents>
			<probabilities>0.8 0.2 0.8 0.2 0.8 0.2 8.000000000000001e-005 0.99992</probabilities>
		</cpt>
		<cpt id="GOAL_127418">
			<state id="state1" />
			<state id="state2" />
			<parents>GOAL_108386 GOAL66390</parents>
			<probabilities>0.8 0.2 0.8 0.2 0.8 0.2 8.000000000000001e-005 0.99992</probabilities>
		</cpt>
		<cpt id="RApp9419">
			<state id="state1" />
			<state id="state2" />
			<parents>NEED67392 GOAL_108386</parents>
			<probabilities>1 0 1 0 1 0 0.0001 0.9999</probabilities>
		</cpt>
		<cpt id="RApp10420">
			<state id="state1" />
			<state id="state2" />
			<parents>NEED36302 GOAL_127418</parents>
			<probabilities>1 0 1 0 1 0 0.0001 0.9999</probabilities>
		</cpt>
		<cpt id="SNode_128421">
			<state id="state1" />
			<state id="state2" />
			<parents>RApp9419 RApp10420</parents>
			<probabilities>0.8 0.2 0 1 0 1 0 1</probabilities>
		</cpt>
		<cpt id="GOAL_129422">
			<state id="state1" />
			<state id="state2" />
			<parents>GOAL_126417 GOAL68396</parents>
			<probabilities>0.8 0.2 0.8 0.2 0.8 0.2 8.000000000000001e-005 0.99992</probabilities>
		</cpt>
		<cpt id="GOAL_130423">
			<state id="state1" />
			<state id="state2" />
			<parents>GOAL_126417 GOAL68396</parents>
			<probabilities>0.8 0.2 0.8 0.2 0.8 0.2 8.000000000000001e-005 0.99992</probabilities>
		</cpt>
		<cpt id="SNode_131424">
			<state id="state1" />
			<state id="state2" />
			<parents>GOAL_130423 NEED36302</parents>
			<probabilities>0.8 0.2 0.8 0.2 0.8 0.2 8.000000000000001e-005 0.99992</probabilities>
		</cpt>
		<cpt id="SNode_132425">
			<state id="state1" />
			<state id="state2" />
			<parents>SNode_95369 SNode_97370 GOAL_130423 SNode_131424 VECTOR69400</parents>
			<probabilities>0.5 0.5 0.5 0.5 0.5 0.5 0.5 0.5 0.5 0.5 0.5 0.5 0.5 0.5 0.5 0.5 0.5 0.5 0.5 0.5 0.5 0.5 0.5 0.5 0.5 0.5 0.5 0.5 0.5 0.5 0.5 0.5 0.5 0.5 0.5 0.5 0.5 0.5 0.5 0.5 0.5 0.5 0.5 0.5 0.5 0.5 0.5 0.5 0.5 0.5 0.5 0.5 0.5 0.5 0.5 0.5 0.5 0.5 0.5 0.5 0.5 0.5 0.5 0.5</probabilities>
		</cpt>
		<cpt id="SNode_133426">
			<state id="state1" />
			<state id="state2" />
			<parents>GOAL_129422 NEED36302</parents>
			<probabilities>0.8 0.2 0.8 0.2 0.8 0.2 8.000000000000001e-005 0.99992</probabilities>
		</cpt>
		<cpt id="SNode_134427">
			<state id="state1" />
			<state id="state2" />
			<parents>SNode_91360 SNode_93365 GOAL_129422 SNode_133426 VECTOR73411</parents>
			<probabilities>0.5 0.5 0.5 0.5 0.5 0.5 0.5 0.5 0.5 0.5 0.5 0.5 0.5 0.5 0.5 0.5 0.5 0.5 0.5 0.5 0.5 0.5 0.5 0.5 0.5 0.5 0.5 0.5 0.5 0.5 0.5 0.5 0.5 0.5 0.5 0.5 0.5 0.5 0.5 0.5 0.5 0.5 0.5 0.5 0.5 0.5 0.5 0.5 0.5 0.5 0.5 0.5 0.5 0.5 0.5 0.5 0.5 0.5 0.5 0.5 0.5 0.5 0.5 0.5</probabilities>
		</cpt>
		<cpt id="SNode_135428">
			<state id="state1" />
			<state id="state2" />
			<parents>SNode_92363 SNode_93365 GOAL_129422 SNode_133426 VECTOR69400</parents>
			<probabilities>0.5 0.5 0.5 0.5 0.5 0.5 0.5 0.5 0.5 0.5 0.5 0.5 0.5 0.5 0.5 0.5 0.5 0.5 0.5 0.5 0.5 0.5 0.5 0.5 0.5 0.5 0.5 0.5 0.5 0.5 0.5 0.5 0.5 0.5 0.5 0.5 0.5 0.5 0.5 0.5 0.5 0.5 0.5 0.5 0.5 0.5 0.5 0.5 0.5 0.5 0.5 0.5 0.5 0.5 0.5 0.5 0.5 0.5 0.5 0.5 0.5 0.5 0.5 0.5</probabilities>
		</cpt>
		<cpt id="SNode_154429">
			<state id="state1" />
			<state id="state2" />
			<parents>GOAL_121409 NEED36302</parents>
			<probabilities>0.8 0.2 0.8 0.2 0.8 0.2 8.000000000000001e-005 0.99992</probabilities>
		</cpt>
		<cpt id="SNode_136430">
			<state id="state1" />
			<state id="state2" />
			<parents>SNode_37343 GOAL_108386 SNode_128421 SNode_154429 NEWTONS74413</parents>
			<probabilities>0.5 0.5 0.5 0.5 0.5 0.5 0.5 0.5 0.5 0.5 0.5 0.5 0.5 0.5 0.5 0.5 0.5 0.5 0.5 0.5 0.5 0.5 0.5 0.5 0.5 0.5 0.5 0.5 0.5 0.5 0.5 0.5 0.5 0.5 0.5 0.5 0.5 0.5 0.5 0.5 0.5 0.5 0.5 0.5 0.5 0.5 0.5 0.5 0.5 0.5 0.5 0.5 0.5 0.5 0.5 0.5 0.5 0.5 0.5 0.5 0.5 0.5 0.5 0.5</probabilities>
		</cpt>
		<cpt id="SNode_137431">
			<state id="state1" />
			<state id="state2" />
			<parents>GOAL_108386 SNode_128421 SUM75415</parents>
			<probabilities>0.9 0.1 0.9 0.1 0.9 0.1 0.9 0.1 0.9 0.1 0.9 0.1 0.9 0.1 9.000000000000001e-005 0.99991</probabilities>
		</cpt>
		<cpt id="GOAL_142432">
			<state id="state1" />
			<state id="state2" />
			<parents>SNode_116401 SNode_125416 EQUATION28325</parents>
			<probabilities>0.8 0.2 0.8 0.2 0.8 0.2 0.8 0.2 0.8 0.2 0.8 0.2 0.8 0.2 8.000000000000001e-005 0.99992</probabilities>
		</cpt>
		<cpt id="GOAL_143433">
			<state id="state1" />
			<state id="state2" />
			<parents>SNode_116401 SNode_132425 EQUATION28325</parents>
			<probabilities>0.8 0.2 0.8 0.2 0.8 0.2 0.8 0.2 0.8 0.2 0.8 0.2 0.8 0.2 8.000000000000001e-005 0.99992</probabilities>
		</cpt>
		<cpt id="GOAL_146434">
			<state id="state1" />
			<state id="state2" />
			<parents>SNode_132425 SNode_137431 EQUATION28325</parents>
			<probabilities>0.8 0.2 0.8 0.2 0.8 0.2 0.8 0.2 0.8 0.2 0.8 0.2 0.8 0.2 8.000000000000001e-005 0.99992</probabilities>
		</cpt>
		<cpt id="RApp11435">
			<state id="state1" />
			<state id="state2" />
			<parents>VECTOR27287 GOAL_142432</parents>
			<probabilities>1 0 1 0 1 0 0.0001 0.9999</probabilities>
		</cpt>
		<cpt id="RApp12436">
			<state id="state1" />
			<state id="state2" />
			<parents>COMPO16263 GOAL_143433</parents>
			<probabilities>1 0 1 0 1 0 0.0001 0.9999</probabilities>
		</cpt>
		<cpt id="RApp13437">
			<state id="state1" />
			<state id="state2" />
			<parents>VECTOR27287 GOAL_146434</parents>
			<probabilities>1 0 1 0 1 0 0.0001 0.9999</probabilities>
		</cpt>
		<cpt id="GOAL_147438">
			<state id="state1" />
			<state id="state2" />
			<parents>RApp11435 RApp12436 RApp13437</parents>
			<probabilities>0.8 0.2 0 1 0 1 0 1 0 1 0 1 0 1 0 1</probabilities>
		</cpt>
		<cpt id="TRY76439">
			<state id="state1" />
			<state id="state2" />
			<parents>GOAL_143210 SNode_6072 SNode_37120</parents>
			<probabilities>0.3999889 0.6000111 0.3869396 0.6130604 0.6995129 0.3004871 0.1836629 0.8163371 0.8821585 0.1178415 0.1638779 0.8361221 0.1353566 0.8646434 0.7916746 0.2083254</probabilities>
		</cpt>
		<cpt id="GOAL_149440">
			<state id="state1" />
			<state id="state2" />
			<parents>GOAL_147438 TRY76439</parents>
			<probabilities>0.7 0.3 0.7 0.3 0.7 0.3 6.999999999999999e-005 0.99993</probabilities>
		</cpt>
		<cpt id="APPLY77441">
			<state id="state1" />
			<state id="state2" />
			<parents>SNode_134204</parents>
			<probabilities>0.4637794855117943 0.5362205144882059 0.799776879977688 0.200223120022312</probabilities>
		</cpt>
		<cpt id="GOAL_150442">
			<state id="state1" />
			<state id="state2" />
			<parents>SNode_20247 SNode_37343 GOAL_149440 APPLY77441</parents>
			<probabilities>0.8 0.2 0.8 0.2 0.8 0.2 0.8 0.2 0.8 0.2 0.8 0.2 0.8 0.2 0.8 0.2 0.8 0.2 0.8 0.2 0.8 0.2 0.8 0.2 0.8 0.2 0.8 0.2 0.8 0.2 8.000000000000001e-005 0.99992</probabilities>
		</cpt>
		<cpt id="GRAV78443">
			<state id="state1" />
			<state id="state2" />
			<parents>GRAV78220</parents>
			<probabilities>0.4458098891619778 0.5541901108380222 0.5561767112353423 0.4438232887646578</probabilities>
		</cpt>
		<cpt id="SNode_151444">
			<state id="state1" />
			<state id="state2" />
			<parents>GOAL_150442 GRAV78443</parents>
			<probabilities>0.9 0.1 0.9 0.1 0.9 0.1 9.000000000000001e-005 0.99991</probabilities>
		</cpt>
		<cpt id="GOAL_153445">
			<state id="state1" />
			<state id="state2" />
			<parents>GOAL_108386 GOAL72408</parents>
			<probabilities>0.8 0.2 0.8 0.2 0.8 0.2 8.000000000000001e-005 0.99992</probabilities>
		</cpt>
		<cpt id="SNode_155446">
			<state id="state1" />
			<state id="state2" />
			<parents>SNode_4226 SNode_100374 GOAL_153445 SNode_154429 VECTOR44323</parents>
			<probabilities>0.5 0.5 0.5 0.5 0.5 0.5 0.5 0.5 0.5 0.5 0.5 0.5 0.5 0.5 0.5 0.5 0.5 0.5 0.5 0.5 0.5 0.5 0.5 0.5 0.5 0.5 0.5 0.5 0.5 0.5 0.5 0.5 0.5 0.5 0.5 0.5 0.5 0.5 0.5 0.5 0.5 0.5 0.5 0.5 0.5 0.5 0.5 0.5 0.5 0.5 0.5 0.5 0.5 0.5 0.5 0.5 0.5 0.5 0.5 0.5 0.5 0.5 0.5 0.5</probabilities>
		</cpt>
	</nodes>
	<extensions>
		<genie version="1.0" app="GeNIe 2.0.3887.0" name="Sub0" faultnameformat="nodestate">
			<node id="GOAL_21">
				<name>GOAL_21</name>
				<interior color="e5f6f7" />
				<outline color="0000bb" />
				<font color="000000" name="Arial" size="8" />
				<position>741 472 817 508</position>
			</node>
			<node id="SNode_32">
				<name>SNode_32</name>
				<interior color="e5f6f7" />
				<outline color="0000bb" />
				<font color="000000" name="Arial" size="8" />
				<position>653 518 729 554</position>
			</node>
			<node id="SNode_43">
				<name>SNode_43</name>
				<interior color="e5f6f7" />
				<outline color="0000bb" />
				<font color="000000" name="Arial" size="8" />
				<position>790 457 866 493</position>
			</node>
			<node id="SNode_54">
				<name>SNode_54</name>
				<interior color="e5f6f7" />
				<outline color="0000bb" />
				<font color="000000" name="Arial" size="8" />
				<position>931 534 1007 570</position>
			</node>
			<node id="SNode_65">
				<name>SNode_65</name>
				<interior color="e5f6f7" />
				<outline color="0000bb" />
				<font color="000000" name="Arial" size="8" />
				<position>695 450 771 486</position>
			</node>
			<node id="SNode_76">
				<name>SNode_76</name>
				<interior color="e5f6f7" />
				<outline color="0000bb" />
				<font color="000000" name="Arial" size="8" />
				<position>919 577 995 613</position>
			</node>
			<node id="DISPLACEM07">
				<name>DISPLACEM07</name>
				<interior color="e5f6f7" />
				<outline color="0000bb" />
				<font color="000000" name="Arial" size="8" />
				<position>781 362 857 398</position>
			</node>
			<node id="RApp18">
				<name>RApp18</name>
				<interior color="e5f6f7" />
				<outline color="0000bb" />
				<font color="000000" name="Arial" size="8" />
				<position>689 353 765 389</position>
			</node>
			<node id="GIVEN_19">
				<name>GIVEN_19</name>
				<interior color="e5f6f7" />
				<outline color="0000bb" />
				<font color="000000" name="Arial" size="8" />
				<position>927 248 1003 284</position>
			</node>
			<node id="RApp210">
				<name>RApp210</name>
				<interior color="e5f6f7" />
				<outline color="0000bb" />
				<font color="000000" name="Arial" size="8" />
				<position>701 259 777 295</position>
			</node>
			<node id="SNode_811">
				<name>SNode_811</name>
				<interior color="e5f6f7" />
				<outline color="0000bb" />
				<font color="000000" name="Arial" size="8" />
				<position>779 211 855 247</position>
			</node>
			<node id="SNode_912">
				<name>SNode_912</name>
				<interior color="e5f6f7" />
				<outline color="0000bb" />
				<font color="000000" name="Arial" size="8" />
				<position>749 288 825 324</position>
			</node>
			<node id="SNode_1013">
				<name>SNode_1013</name>
				<interior color="e5f6f7" />
				<outline color="0000bb" />
				<font color="000000" name="Arial" size="8" />
				<position>671 284 747 320</position>
			</node>
			<node id="SNode_1114">
				<name>SNode_1114</name>
				<interior color="e5f6f7" />
				<outline color="0000bb" />
				<font color="000000" name="Arial" size="8" />
				<position>873 106 949 142</position>
			</node>
			<node id="SNode_1215">
				<name>SNode_1215</name>
				<interior color="e5f6f7" />
				<outline color="0000bb" />
				<font color="000000" name="Arial" size="8" />
				<position>714 116 790 152</position>
			</node>
			<node id="SNode_1316">
				<name>SNode_1316</name>
				<interior color="e5f6f7" />
				<outline color="0000bb" />
				<font color="000000" name="Arial" size="8" />
				<position>1061 206 1137 242</position>
			</node>
			<node id="SNode_1417">
				<name>SNode_1417</name>
				<interior color="e5f6f7" />
				<outline color="0000bb" />
				<font color="000000" name="Arial" size="8" />
				<position>990 189 1066 225</position>
			</node>
			<node id="SNode_1518">
				<name>SNode_1518</name>
				<interior color="e5f6f7" />
				<outline color="0000bb" />
				<font color="000000" name="Arial" size="8" />
				<position>939 103 1015 139</position>
			</node>
			<node id="SNode_1619">
				<name>SNode_1619</name>
				<interior color="e5f6f7" />
				<outline color="0000bb" />
				<font color="000000" name="Arial" size="8" />
				<position>1084 15 1160 51</position>
			</node>
			<node id="SNode_1720">
				<name>SNode_1720</name>
				<interior color="e5f6f7" />
				<outline color="0000bb" />
				<font color="000000" name="Arial" size="8" />
				<position>1085 113 1161 149</position>
			</node>
			<node id="SNode_1821">
				<name>SNode_1821</name>
				<interior color="e5f6f7" />
				<outline color="0000bb" />
				<font color="000000" name="Arial" size="8" />
				<position>1056 61 1132 97</position>
			</node>
			<node id="SNode_1922">
				<name>SNode_1922</name>
				<interior color="e5f6f7" />
				<outline color="0000bb" />
				<font color="000000" name="Arial" size="8" />
				<position>1012 25 1088 61</position>
			</node>
			<node id="NEED123">
				<name>NEED123</name>
				<interior color="e5f6f7" />
				<outline color="0000bb" />
				<font color="000000" name="Arial" size="8" />
				<position>1049 142 1125 178</position>
			</node>
			<node id="SNode_2024">
				<name>SNode_2024</name>
				<interior color="e5f6f7" />
				<outline color="0000bb" />
				<font color="000000" name="Arial" size="8" />
				<position>948 246 1024 282</position>
			</node>
			<node id="GRAV225">
				<name>GRAV225</name>
				<interior color="e5f6f7" />
				<outline color="0000bb" />
				<font color="000000" name="Arial" size="8" />
				<position>947 220 1023 256</position>
			</node>
			<node id="SNode_2126">
				<name>SNode_2126</name>
				<interior color="e5f6f7" />
				<outline color="0000bb" />
				<font color="000000" name="Arial" size="8" />
				<position>968 153 1044 189</position>
			</node>
			<node id="VALUE327">
				<name>VALUE327</name>
				<interior color="e5f6f7" />
				<outline color="0000bb" />
				<font color="000000" name="Arial" size="8" />
				<position>990 91 1066 127</position>
			</node>
			<node id="SNode_2428">
				<name>SNode_2428</name>
				<interior color="e5f6f7" />
				<outline color="0000bb" />
				<font color="000000" name="Arial" size="8" />
				<position>887 164 963 200</position>
			</node>
			<node id="SLIDING429">
				<name>SLIDING429</name>
				<interior color="e5f6f7" />
				<outline color="0000bb" />
				<font color="000000" name="Arial" size="8" />
				<position>916 12 992 48</position>
			</node>
			<node id="SNode_2530">
				<name>SNode_2530</name>
				<interior color="e5f6f7" />
				<outline color="0000bb" />
				<font color="000000" name="Arial" size="8" />
				<position>933 40 1009 76</position>
			</node>
			<node id="CONSTANT531">
				<name>CONSTANT531</name>
				<interior color="e5f6f7" />
				<outline color="0000bb" />
				<font color="000000" name="Arial" size="8" />
				<position>834 4 910 40</position>
			</node>
			<node id="SNode_2632">
				<name>SNode_2632</name>
				<interior color="e5f6f7" />
				<outline color="0000bb" />
				<font color="000000" name="Arial" size="8" />
				<position>831 87 907 123</position>
			</node>
			<node id="KNOWN633">
				<name>KNOWN633</name>
				<interior color="e5f6f7" />
				<outline color="0000bb" />
				<font color="000000" name="Arial" size="8" />
				<position>676 5 752 41</position>
			</node>
			<node id="VELOCITY734">
				<name>VELOCITY734</name>
				<interior color="e5f6f7" />
				<outline color="0000bb" />
				<font color="000000" name="Arial" size="8" />
				<position>478 28 554 64</position>
			</node>
			<node id="SNode_4735">
				<name>SNode_4735</name>
				<interior color="e5f6f7" />
				<outline color="0000bb" />
				<font color="000000" name="Arial" size="8" />
				<position>572 23 648 59</position>
			</node>
			<node id="RApp336">
				<name>RApp336</name>
				<interior color="e5f6f7" />
				<outline color="0000bb" />
				<font color="000000" name="Arial" size="8" />
				<position>759 32 835 68</position>
			</node>
			<node id="KNOWN837">
				<name>KNOWN837</name>
				<interior color="e5f6f7" />
				<outline color="0000bb" />
				<font color="000000" name="Arial" size="8" />
				<position>662 52 738 88</position>
			</node>
			<node id="RApp438">
				<name>RApp438</name>
				<interior color="e5f6f7" />
				<outline color="0000bb" />
				<font color="000000" name="Arial" size="8" />
				<position>850 51 926 87</position>
			</node>
			<node id="SNode_2739">
				<name>SNode_2739</name>
				<interior color="e5f6f7" />
				<outline color="0000bb" />
				<font color="000000" name="Arial" size="8" />
				<position>885 103 961 139</position>
			</node>
			<node id="COMPO1640">
				<name>COMPO1640</name>
				<interior color="e5f6f7" />
				<outline color="0000bb" />
				<font color="000000" name="Arial" size="8" />
				<position>451 74 527 110</position>
			</node>
			<node id="GOAL_4841">
				<name>GOAL_4841</name>
				<interior color="e5f6f7" />
				<outline color="0000bb" />
				<font color="000000" name="Arial" size="8" />
				<position>536 75 612 111</position>
			</node>
			<node id="TRY1242">
				<name>TRY1242</name>
				<interior color="e5f6f7" />
				<outline color="0000bb" />
				<font color="000000" name="Arial" size="8" />
				<position>804 85 880 121</position>
			</node>
			<node id="TRY1143">
				<name>TRY1143</name>
				<interior color="e5f6f7" />
				<outline color="0000bb" />
				<font color="000000" name="Arial" size="8" />
				<position>721 92 797 128</position>
			</node>
			<node id="GOAL_4944">
				<name>GOAL_4944</name>
				<interior color="e5f6f7" />
				<outline color="0000bb" />
				<font color="000000" name="Arial" size="8" />
				<position>629 113 705 149</position>
			</node>
			<node id="CHOOSE1945">
				<name>CHOOSE1945</name>
				<interior color="e5f6f7" />
				<outline color="0000bb" />
				<font color="000000" name="Arial" size="8" />
				<position>456 137 532 173</position>
			</node>
			<node id="GOAL_5046">
				<name>GOAL_5046</name>
				<interior color="e5f6f7" />
				<outline color="0000bb" />
				<font color="000000" name="Arial" size="8" />
				<position>544 135 620 171</position>
			</node>
			<node id="SYSTEM1847">
				<name>SYSTEM1847</name>
				<interior color="e5f6f7" />
				<outline color="0000bb" />
				<font color="000000" name="Arial" size="8" />
				<position>786 145 862 181</position>
			</node>
			<node id="SNode_5148">
				<name>SNode_5148</name>
				<interior color="e5f6f7" />
				<outline color="0000bb" />
				<font color="000000" name="Arial" size="8" />
				<position>698 155 774 191</position>
			</node>
			<node id="KINEMATI1749">
				<name>KINEMATI1749</name>
				<interior color="e5f6f7" />
				<outline color="0000bb" />
				<font color="000000" name="Arial" size="8" />
				<position>819 197 895 233</position>
			</node>
			<node id="SNode_5250">
				<name>SNode_5250</name>
				<interior color="e5f6f7" />
				<outline color="0000bb" />
				<font color="000000" name="Arial" size="8" />
				<position>43 202 119 238</position>
			</node>
			<node id="IDENTIFY1051">
				<name>IDENTIFY1051</name>
				<interior color="e5f6f7" />
				<outline color="0000bb" />
				<font color="000000" name="Arial" size="8" />
				<position>623 166 699 202</position>
			</node>
			<node id="GOAL_5352">
				<name>GOAL_5352</name>
				<interior color="e5f6f7" />
				<outline color="0000bb" />
				<font color="000000" name="Arial" size="8" />
				<position>126 199 202 235</position>
			</node>
			<node id="IDENTIFY953">
				<name>IDENTIFY953</name>
				<interior color="e5f6f7" />
				<outline color="0000bb" />
				<font color="000000" name="Arial" size="8" />
				<position>172 167 248 203</position>
			</node>
			<node id="SNode_2854">
				<name>SNode_2854</name>
				<interior color="e5f6f7" />
				<outline color="0000bb" />
				<font color="000000" name="Arial" size="8" />
				<position>264 161 340 197</position>
			</node>
			<node id="TRY1355">
				<name>TRY1355</name>
				<interior color="e5f6f7" />
				<outline color="0000bb" />
				<font color="000000" name="Arial" size="8" />
				<position>371 167 447 203</position>
			</node>
			<node id="TRY1456">
				<name>TRY1456</name>
				<interior color="e5f6f7" />
				<outline color="0000bb" />
				<font color="000000" name="Arial" size="8" />
				<position>535 182 611 218</position>
			</node>
			<node id="TRY1557">
				<name>TRY1557</name>
				<interior color="e5f6f7" />
				<outline color="0000bb" />
				<font color="000000" name="Arial" size="8" />
				<position>738 193 814 229</position>
			</node>
			<node id="VAR2058">
				<name>VAR2058</name>
				<interior color="e5f6f7" />
				<outline color="0000bb" />
				<font color="000000" name="Arial" size="8" />
				<position>338 216 414 252</position>
			</node>
			<node id="SNode_2959">
				<name>SNode_2959</name>
				<interior color="e5f6f7" />
				<outline color="0000bb" />
				<font color="000000" name="Arial" size="8" />
				<position>652 208 728 244</position>
			</node>
			<node id="SNode_3160">
				<name>SNode_3160</name>
				<interior color="e5f6f7" />
				<outline color="0000bb" />
